{"learner":{"attributes":{},"feature_names":[],"feature_types":[],"gradient_booster":{"model":{"cats":{"enc":[],"feature_segments":[],"sorted_idx":[]},"gbtree_model_param":{"num_parallel_tree":"1","num_trees":"300"},"iteration_indptr":[0,1,2,3,4,5,6,7,8,9,10,11,12,13,14,15,16,17,18,19,20,21,22,23,24,25,26,27,28,29,30,31,32,33,34,35,36,37,38,39,40,41,42,43,44,45,46,47,48,49,50,51,52,53,54,55,56,57,58,59,60,61,62,63,64,65,66,67,68,69,70,71,72,73,74,75,76,77,78,79,80,81,82,83,84,85,86,87,88,89,90,91,92,93,94,95,96,97,98,99,100,101,102,103,104,105,106,107,108,109,110,111,112,113,114,115,116,117,118,119,120,121,122,123,124,125,126,127,128,129,130,131,132,133,134,135,136,137,138,139,140,141,142,143,144,145,146,147,148,149,150,151,152,153,154,155,156,157,158,159,160,161,162,163,164,165,166,167,168,169,170,171,172,173,174,175,176,177,178,179,180,181,182,183,184,185,186,187,188,189,190,191,192,193,194,195,196,197,198,199,200,201,202,203,204,205,206,207,208,209,210,211,212,213,214,215,216,217,218,219,220,221,222,223,224,225,226,227,228,229,230,231,232,233,234,235,236,237,238,239,240,241,242,243,244,245,246,247,248,249,250,251,252,253,254,255,256,257,258,259,260,261,262,263,264,265,266,267,268,269,270,271,272,273,274,275,276,277,278,279,280,281,282,283,284,285,286,287,288,289,290,291,292,293,294,295,296,297,298,299,300],"tree_info":[0,0,0,0,0,0,0,0,0,0,0,0,0,0,0,0,0,0,0,0,0,0,0,0,0,0,0,0,0,0,0,0,0,0,0,0,0,0,0,0,0,0,0,0,0,0,0,0,0,0,0,0,0,0,0,0,0,0,0,0,0,0,0,0,0,0,0,0,0,0,0,0,0,0,0,0,0,0,0,0,0,0,0,0,0,0,0,0,0,0,0,0,0,0,0,0,0,0,0,0,0,0,0,0,0,0,0,0,0,0,0,0,0,0,0,0,0,0,0,0,0,0,0,0,0,0,0,0,0,0,0,0,0,0,0,0,0,0,0,0,0,0,0,0,0,0,0,0,0,0,0,0,0,0,0,0,0,0,0,0,0,0,0,0,0,0,0,0,0,0,0,0,0,0,0,0,0,0,0,0,0,0,0,0,0,0,0,0,0,0,0,0,0,0,0,0,0,0,0,0,0,0,0,0,0,0,0,0,0,0,0,0,0,0,0,0,0,0,0,0,0,0,0,0,0,0,0,0,0,0,0,0,0,0,0,0,0,0,0,0,0,0,0,0,0,0,0,0,0,0,0,0,0,0,0,0,0,0,0,0,0,0,0,0,0,0,0,0,0,0,0,0,0,0,0,0,0,0,0,0,0,0,0,0,0,0,0,0,0,0,0,0,0,0,0,0,0,0,0,0],"trees":[{"base_weights":[-2.8324379E1,-1.6212505E3,1.5034579E4,-2.9989365E3,-4.8326516E-1,1.1193498E4,2.9165238E4,-3.8450693E3,-2.2887634E3,-4.716785E2,5.905165E3,1.6004554E4,7.5356455E3,4.2796016E4,1.7517844E4,-3.9829006E3,-2.3570078E3,-1.4879607E3,-2.5702083E3,9.654415E2,-1.01496765E3,6.790268E3,8.702426E2,2.4941395E4,1.4878296E4,4.2269E3,9.396476E3,2.6693455E3,3.5849703E4,6.8595063E3,2.2680045E4,-5.234828E3,-3.8839236E3,-2.0505232E3,-3.0033184E3,-1.599926E3,-2.8615625E2,-3.083317E3,-2.0885835E3,6.0400586E2,4.4831475E3,-2.2013767E3,-4.054168E2,6.388483E3,8.5312885E2,-1.170002E3,4.1089565E3,1.2430403E4,2.8948135E4,1.2561482E4,1.8077838E4,2.089636E3,5.3387534E3,7.672698E3,1.3811883E4,3.6701348E4,4.001216E2,3.4577454E3,9.578116E3,1.8352637E3,1.8729902E4,-1.8558275E2,-2.692164E2,-1.9942513E2,-1.4490729E2,-1.4703996E2,-7.192814E1,-1.1524396E2,-1.6982196E2,-8.7998375E1,-3.897617E1,-4.65509E1,9.131759E0,-1.3650822E2,-1.9273578E2,-8.0824715E1,-1.2596374E2,9.391082E0,8.025959E1,2.783225E2,8.941991E1,-7.174972E1,-1.459882E2,-4.8389004E1,2.6277983E1,4.1118472E2,2.6134024E2,1.3349992E2,-1.380001E2,2.709088E2,1.2598816E2,2.4244681E2,7.493449E2,1.4821703E3,3.0654123E2,4.488628E2,7.712394E2,7.404418E2,1.0107833E3,8.758367E1,5.0004123E2,4.0776047E2,1.977599E2,5.220934E2,3.0192142E2,7.464127E2,4.2128027E2,8.2758594E2,1.8966508E3,-8.3278206E1,2.2967224E2,-6.64838E1,5.1110968E2,8.431757E2,1.4260096E3],"categories":[],"categories_nodes":[],"categories_segments":[],"categories_sizes":[],"default_left":[0,0,0,0,0,0,0,0,0,0,0,0,0,0,0,0,0,0,0,0,0,0,0,0,0,0,0,0,0,0,0,0,0,0,0,0,0,0,0,0,0,0,0,0,0,0,0,0,0,0,0,0,0,0,0,0,0,0,0,0,0,0,0,0,0,0,0,0,0,0,0,0,0,0,0,0,0,0,0,0,0,0,0,0,0,0,0,0,0,0,0,0,0,0,0,0,0,0,0,0,0,0,0,0,0,0,0,0,0,0,0,0,0,0,0],"id":0,"left_children":[1,3,5,7,9,11,13,15,17,19,21,23,25,27,29,31,33,35,37,39,41,43,45,47,49,51,53,-1,55,57,59,61,63,65,67,69,71,73,75,77,79,81,83,85,-1,87,89,91,93,95,97,99,101,103,105,107,-1,109,111,-1,113,-1,-1,-1,-1,-1,-1,-1,-1,-1,-1,-1,-1,-1,-1,-1,-1,-1,-1,-1,-1,-1,-1,-1,-1,-1,-1,-1,-1,-1,-1,-1,-1,-1,-1,-1,-1,-1,-1,-1,-1,-1,-1,-1,-1,-1,-1,-1,-1,-1,-1,-1,-1,-1,-1],"loss_changes":[2.343267E11,1.9721046E10,5.0368283E10,2.8598968E9,1.129782E10,1.2831621E10,3.0844158E10,4.3711898E8,5.81718E8,2.9366817E9,1.3310177E9,2.8195717E9,2.5462272E9,4.780753E9,5.84166E9,2.2637773E8,3.0883392E7,9.077414E7,4.6828954E8,1.3094021E9,1.9726566E9,9.434491E8,3.0876483E8,1.3445243E9,1.8781389E9,3.524219E8,1.933822E9,0E0,1.0818273E9,3.090596E8,3.3568358E9,1.257856E7,1.7905664E8,6.6595264E7,8.096768E6,8.003315E7,1.800607E7,2.4228352E8,1.9803238E8,3.901256E8,2.7029107E8,5.0562816E8,9.4498726E8,4.836014E8,0E0,1.8443162E8,2.3798336E7,1.2114931E8,2.1486592E8,1.585664E9,5.1829146E8,1.2686082E8,3.5741645E8,8.194335E8,3.1919E8,7.619379E8,0E0,1.123844E8,1.5410138E8,0E0,5.971272E8,0E0,0E0,0E0,0E0,0E0,0E0,0E0,0E0,0E0,0E0,0E0,0E0,0E0,0E0,0E0,0E0,0E0,0E0,0E0,0E0,0E0,0E0,0E0,0E0,0E0,0E0,0E0,0E0,0E0,0E0,0E0,0E0,0E0,0E0,0E0,0E0,0E0,0E0,0E0,0E0,0E0,0E0,0E0,0E0,0E0,0E0,0E0,0E0,0E0,0E0,0E0,0E0,0E0,0E0],"parents":[2147483647,0,0,1,1,2,2,3,3,4,4,5,5,6,6,7,7,8,8,9,9,10,10,11,11,12,12,13,13,14,14,15,15,16,16,17,17,18,18,19,19,20,20,21,21,22,22,23,23,24,24,25,25,26,26,28,28,29,29,30,30,31,31,32,32,33,33,34,34,35,35,36,36,37,37,38,38,39,39,40,40,41,41,42,42,43,43,45,45,46,46,47,47,48,48,49,49,50,50,51,51,52,52,53,53,54,54,55,55,57,57,58,58,60,60],"right_children":[2,4,6,8,10,12,14,16,18,20,22,24,26,28,30,32,34,36,38,40,42,44,46,48,50,52,54,-1,56,58,60,62,64,66,68,70,72,74,76,78,80,82,84,86,-1,88,90,92,94,96,98,100,102,104,106,108,-1,110,112,-1,114,-1,-1,-1,-1,-1,-1,-1,-1,-1,-1,-1,-1,-1,-1,-1,-1,-1,-1,-1,-1,-1,-1,-1,-1,-1,-1,-1,-1,-1,-1,-1,-1,-1,-1,-1,-1,-1,-1,-1,-1,-1,-1,-1,-1,-1,-1,-1,-1,-1,-1,-1,-1,-1,-1],"split_conditions":[1.6762E2,8.85E1,2.35E2,7.397E1,1.41E2,5E4,4.2E4,6E0,2.7E4,3.6E4,1E0,1.1E4,9.142857E3,2E4,7.6666665E3,4.73E1,8.4255E4,1.248E3,9.25E3,1.262E2,9.2E3,1E0,1.799E3,1.7433E2,1.877E2,6.75E3,1.877E2,2.6693455E3,1E0,1E0,5.6454E4,1E0,1E0,1.199E3,6.3E1,1E0,7.402E1,5.6E4,6.0682E4,1.134E2,1E0,5.6E4,1.582E3,4.0258E4,8.5312885E2,3.91E4,5.7437E4,1.685E2,1E0,1.997E3,5.9285713E3,1E0,6.3339E4,7.1E4,9.8E4,4E0,4.001216E2,2.6149E2,4.289E3,1.8352637E3,1E0,-1.8558275E2,-2.692164E2,-1.9942513E2,-1.4490729E2,-1.4703996E2,-7.192814E1,-1.1524396E2,-1.6982196E2,-8.7998375E1,-3.897617E1,-4.65509E1,9.131759E0,-1.3650822E2,-1.9273578E2,-8.0824715E1,-1.2596374E2,9.391082E0,8.025959E1,2.783225E2,8.941991E1,-7.174972E1,-1.459882E2,-4.8389004E1,2.6277983E1,4.1118472E2,2.6134024E2,1.3349992E2,-1.380001E2,2.709088E2,1.2598816E2,2.4244681E2,7.493449E2,1.4821703E3,3.0654123E2,4.488628E2,7.712394E2,7.404418E2,1.0107833E3,8.758367E1,5.0004123E2,4.0776047E2,1.977599E2,5.220934E2,3.0192142E2,7.464127E2,4.2128027E2,8.2758594E2,1.8966508E3,-8.3278206E1,2.2967224E2,-6.64838E1,5.1110968E2,8.431757E2,1.4260096E3],"split_indices":[5,5,5,5,5,2,2,6,2,2,37,2,10,2,10,5,2,4,10,5,10,24,4,5,5,10,5,0,111,119,2,122,123,4,5,50,5,2,2,5,104,2,4,2,0,2,2,5,37,4,10,71,2,2,2,6,0,5,10,0,24,0,0,0,0,0,0,0,0,0,0,0,0,0,0,0,0,0,0,0,0,0,0,0,0,0,0,0,0,0,0,0,0,0,0,0,0,0,0,0,0,0,0,0,0,0,0,0,0,0,0,0,0,0,0],"split_type":[0,0,0,0,0,0,0,0,0,0,0,0,0,0,0,0,0,0,0,0,0,0,0,0,0,0,0,0,0,0,0,0,0,0,0,0,0,0,0,0,0,0,0,0,0,0,0,0,0,0,0,0,0,0,0,0,0,0,0,0,0,0,0,0,0,0,0,0,0,0,0,0,0,0,0,0,0,0,0,0,0,0,0,0,0,0,0,0,0,0,0,0,0,0,0,0,0,0,0,0,0,0,0,0,0,0,0,0,0,0,0,0,0,0,0],"sum_hessian":[9.764E3,8.831E3,9.33E2,4.773E3,4.058E3,7.35E2,1.98E2,2.176E3,2.597E3,3.759E3,2.99E2,3.16E2,4.19E2,9E1,1.08E2,1.99E3,1.86E2,6.77E2,1.92E3,1.031E3,2.728E3,2.54E2,4.5E1,3.3E1,2.83E2,1.52E2,2.67E2,3.3E1,5.7E1,3.6E1,7.2E1,1.42E2,1.848E3,1.29E2,5.7E1,6.19E2,5.8E1,9.27E2,9.93E2,9.36E2,9.5E1,9.25E2,1.803E3,2.46E2,8E0,2.8E1,1.7E1,9E0,2.4E1,1.67E2,1.16E2,5.3E1,9.9E1,1.94E2,7.3E1,5.5E1,2E0,1.7E1,1.9E1,1.4E1,5.8E1,1.5E1,1.27E2,1.668E3,1.8E2,5.1E1,7.8E1,2.3E1,3.4E1,5.17E2,1.02E2,2.4E1,3.4E1,6.39E2,2.88E2,4.76E2,5.17E2,6.62E2,2.74E2,6.7E1,2.8E1,4.49E2,4.76E2,1.124E3,6.79E2,9.3E1,1.53E2,8E0,2E1,8E0,9E0,3E0,6E0,2.3E1,1E0,7.6E1,9.1E1,4.9E1,6.7E1,5.2E1,1E0,3.1E1,6.8E1,7E1,1.24E2,5.9E1,1.4E1,4E0,5.1E1,3E0,1.4E1,1E0,1.8E1,5.1E1,7E0],"tree_param":{"num_deleted":"0","num_feature":"125","num_nodes":"115","size_leaf_vector":"1"}},{"base_weights":[2.8219303E1,-1.5548163E3,1.5032467E4,-2.8554304E3,-4.9924824E1,1.1028384E4,3.0352125E4,-2.3155415E3,-4.108797E3,1.4582094E3,-1.6237352E3,1.6271588E4,5.2076387E3,2.8797615E4,8.259308E3,-3.1694648E3,-1.5604346E3,-4.619624E3,-3.5943909E3,6.011191E2,6.542386E3,-2.2646907E3,7.6454994E1,1.2360482E4,2.2567146E4,7.630111E3,3.0151763E3,4.3088906E4,1.8939701E4,-3.6144006E3,-2.7654507E3,-9.8486597E2,-2.165507E3,-4.328687E3,-2.5829364E2,-3.1764302E3,-2.0505681E2,5.7612564E1,1.8980847E3,6.1089165E3,1.0035892E3,-1.5654045E3,-3.0851187E3,1.1444216E3,-2.0773064E3,8.110373E3,1.4422743E4,2.6718355E4,1.7229404E4,5.183614E3,9.95806E3,4.3566123E3,1.7387902E3,3.616159E4,2.5958435E3,3.1472178E4,1.3998771E4,-1.5856883E2,-1.9220027E2,-1.1833878E2,-1.5675528E2,-7.623197E1,-3.6834347E1,-1.1021938E2,1.6468796E0,-2.3058235E2,-2.0827774E2,-1.5028008E2,-2.0951204E2,4.041354E1,-2.7608948E1,1.4441862E2,6.614257E1,2.3240184E2,4.008162E2,-8.331877E1,3.7030106E1,-1.341653E2,-1.9220393E2,3.4925907E1,2.3103508E2,-1.19030174E2,1.0476713E2,5.859776E1,4.134592E2,8.80629E2,4.853672E2,1.5227528E3,1.1643864E3,8.680591E2,2.1000919E2,7.108297E1,2.7804514E2,3.452202E2,5.5576715E2,1.978108E2,4.6847614E2,9.657649E1,-1.1162374E2,2.0054993E3,1.3417211E3,1.3843873E3,2.9412883E3,1.0485516E3,3.957716E2],"categories":[],"categories_nodes":[],"categories_segments":[],"categories_sizes":[],"default_left":[0,0,0,0,0,0,0,0,0,0,0,0,0,0,0,0,0,0,0,0,0,0,0,0,0,0,0,0,0,0,0,0,0,0,0,0,0,0,0,0,0,0,0,0,0,0,0,0,0,0,0,0,0,0,0,0,0,0,0,0,0,0,0,0,0,0,0,0,0,0,0,0,0,0,0,0,0,0,0,0,0,0,0,0,0,0,0,0,0,0,0,0,0,0,0,0,0,0,0,0,0,0,0,0,0],"id":1,"left_children":[1,3,5,7,9,11,13,15,17,19,21,23,25,27,-1,29,31,33,35,37,39,41,43,45,47,49,51,53,55,57,59,61,63,65,-1,67,-1,69,71,73,-1,75,77,79,81,83,85,87,89,91,93,95,97,99,-1,101,103,-1,-1,-1,-1,-1,-1,-1,-1,-1,-1,-1,-1,-1,-1,-1,-1,-1,-1,-1,-1,-1,-1,-1,-1,-1,-1,-1,-1,-1,-1,-1,-1,-1,-1,-1,-1,-1,-1,-1,-1,-1,-1,-1,-1,-1,-1,-1,-1],"loss_changes":[2.3369808E11,1.7419678E10,5.7264636E10,3.220947E9,9.797874E9,2.2682698E10,3.5905552E10,2.148051E9,3.6073677E8,9.181884E9,2.2014607E9,9.373106E9,1.8624635E9,2.6374193E10,0E0,2.715095E8,6.1568154E8,9.158656E7,1.3946778E8,1.2722519E9,1.6602153E9,8.368087E8,1.2766579E9,2.0216463E9,2.841215E9,9.051955E8,3.1431654E8,2.892628E9,6.742393E9,6.328525E7,1.1416218E8,1.2091482E8,7.392461E7,2.669568E6,0E0,5.6507904E7,0E0,5.831557E8,2.998007E8,7.87542E8,0E0,1.8610867E8,1.9522867E8,5.718542E8,2.3784986E8,8.066458E7,2.2807716E9,3.4194637E8,4.3833344E7,1.113193E8,2.2363955E8,1.4558272E8,7.93233E7,6.545572E8,0E0,1.6838164E9,3.4392484E9,0E0,0E0,0E0,0E0,0E0,0E0,0E0,0E0,0E0,0E0,0E0,0E0,0E0,0E0,0E0,0E0,0E0,0E0,0E0,0E0,0E0,0E0,0E0,0E0,0E0,0E0,0E0,0E0,0E0,0E0,0E0,0E0,0E0,0E0,0E0,0E0,0E0,0E0,0E0,0E0,0E0,0E0,0E0,0E0,0E0,0E0,0E0,0E0],"parents":[2147483647,0,0,1,1,2,2,3,3,4,4,5,5,6,6,7,7,8,8,9,9,10,10,11,11,12,12,13,13,15,15,16,16,17,17,18,18,19,19,20,20,21,21,22,22,23,23,24,24,25,25,26,26,27,27,28,28,29,29,30,30,31,31,32,32,33,33,35,35,37,37,38,38,39,39,41,41,42,42,43,43,44,44,45,45,46,46,47,47,48,48,49,49,50,50,51,51,52,52,53,53,55,55,56,56],"right_children":[2,4,6,8,10,12,14,16,18,20,22,24,26,28,-1,30,32,34,36,38,40,42,44,46,48,50,52,54,56,58,60,62,64,66,-1,68,-1,70,72,74,-1,76,78,80,82,84,86,88,90,92,94,96,98,100,-1,102,104,-1,-1,-1,-1,-1,-1,-1,-1,-1,-1,-1,-1,-1,-1,-1,-1,-1,-1,-1,-1,-1,-1,-1,-1,-1,-1,-1,-1,-1,-1,-1,-1,-1,-1,-1,-1,-1,-1,-1,-1,-1,-1,-1,-1,-1,-1,-1,-1],"split_conditions":[1.6762E2,8.85E1,2.35E2,8E0,6E0,7E0,1E0,7.24E5,7.275E5,1.303E2,1.2951852E4,4.42728E4,9E0,6E0,8.259308E3,4.4978E3,5E0,1.2E1,1E1,1.4305E6,4.35246E4,8E0,1E1,3.7708725E6,5E0,4.57778E4,1E1,2.6149E2,4.0258E4,4E0,5E0,8.25E5,9.9588E3,4.4376E3,-2.5829364E2,1E0,-2.0505681E2,4E0,4E0,2.3235E6,1.0035892E3,7.28E5,1E1,4.217E6,4.273252E4,1.4018E4,5E0,4E0,1.03E5,1.7143903E5,1.83E2,1E0,1.5E1,5E0,2.5958435E3,1E0,9E0,-1.5856883E2,-1.9220027E2,-1.1833878E2,-1.5675528E2,-7.623197E1,-3.6834347E1,-1.1021938E2,1.6468796E0,-2.3058235E2,-2.0827774E2,-1.5028008E2,-2.0951204E2,4.041354E1,-2.7608948E1,1.4441862E2,6.614257E1,2.3240184E2,4.008162E2,-8.331877E1,3.7030106E1,-1.341653E2,-1.9220393E2,3.4925907E1,2.3103508E2,-1.19030174E2,1.0476713E2,5.859776E1,4.134592E2,8.80629E2,4.853672E2,1.5227528E3,1.1643864E3,8.680591E2,2.1000919E2,7.108297E1,2.7804514E2,3.452202E2,5.5576715E2,1.978108E2,4.6847614E2,9.657649E1,-1.1162374E2,2.0054993E3,1.3417211E3,1.3843873E3,2.9412883E3,1.0485516E3,3.957716E2],"split_indices":[5,5,5,7,7,7,15,8,8,5,0,0,7,7,0,0,7,7,7,8,0,7,7,8,7,0,7,5,2,7,7,8,0,0,0,17,0,7,7,8,0,9,7,8,0,0,7,7,2,9,5,24,7,7,0,13,7,0,0,0,0,0,0,0,0,0,0,0,0,0,0,0,0,0,0,0,0,0,0,0,0,0,0,0,0,0,0,0,0,0,0,0,0,0,0,0,0,0,0,0,0,0,0,0,0],"split_type":[0,0,0,0,0,0,0,0,0,0,0,0,0,0,0,0,0,0,0,0,0,0,0,0,0,0,0,0,0,0,0,0,0,0,0,0,0,0,0,0,0,0,0,0,0,0,0,0,0,0,0,0,0,0,0,0,0,0,0,0,0,0,0,0,0,0,0,0,0,0,0,0,0,0,0,0,0,0,0,0,0,0,0,0,0,0,0,0,0,0,0,0,0,0,0,0,0,0,0,0,0,0,0,0,0],"sum_hessian":[9.837E3,8.899E3,9.38E2,4.773E3,4.126E3,7.45E2,1.93E2,3.338E3,1.435E3,2.107E3,2.019E3,3.91E2,3.54E2,1.92E2,1E0,1.565E3,1.773E3,7.16E2,7.19E2,1.804E3,3.03E2,1.466E3,5.53E2,2.43E2,1.48E2,1.67E2,1.87E2,7.7E1,1.15E2,7.41E2,8.24E2,9.1E2,8.63E2,4.73E2,2.43E2,3.98E2,3.21E2,1.272E3,5.32E2,2.95E2,8E0,7.93E2,6.73E2,3.7E2,1.83E2,8.1E1,1.62E2,8.1E1,6.7E1,8.3E1,8.4E1,9E1,9.7E1,4.6E1,3.1E1,3.1E1,8.4E1,2.58E2,4.83E2,4E2,4.24E2,2.85E2,6.25E2,8.48E2,1.5E1,1.63E2,3.1E2,3.44E2,5.4E1,5.7E2,7.02E2,1.94E2,3.38E2,1.69E2,1.26E2,7.6E2,3.3E1,4.43E2,2.3E2,3.29E2,4.1E1,1.71E2,1.2E1,2E0,7.9E1,9.5E1,6.7E1,3.5E1,4.6E1,6.6E1,1E0,8E0,7.5E1,2.5E1,5.9E1,8.5E1,5E0,9.3E1,4E0,3E1,1.6E1,2.9E1,2E0,3.8E1,4.6E1],"tree_param":{"num_deleted":"0","num_feature":"125","num_nodes":"105","size_leaf_vector":"1"}},{"base_weights":[2.9219326E1,-1.4411367E3,1.373595E4,-2.0004072E3,2.088368E3,1.0253898E4,2.7286275E4,-1.2534341E3,-3.3200386E3,4.680064E3,-1.4370378E2,1.5027806E4,4.889633E3,2.5750719E4,8.052825E3,-2.601445E3,-3.6245508E2,-2.8377935E3,-4.1818755E3,2.9511777E3,7.8921846E3,8.766854E2,-2.3316704E3,1.1762819E4,2.1848496E4,7.351476E3,2.711531E3,4.1414445E4,1.7023646E4,-3.103935E3,-1.9993795E3,2.780764E2,-1.2502526E3,-3.529388E3,-2.4139697E3,-4.706294E3,-3.829348E3,5.0784614E3,2.4646252E3,7.0662217E3,9.94963E2,4.5306506E2,5.2642026E3,-3.4199602E3,-1.5903926E3,7.2604946E3,1.3805505E4,1.5445555E3,1.8765133E4,5.469431E3,9.480237E3,4.0146003E3,1.7155016E3,3.0508527E4,4.7045598E4,2.173218E4,7.5391816E3,-1.853242E2,-1.4411174E2,-7.584581E1,-1.1497847E2,-1.0705977E1,7.386217E1,-7.833833E1,-4.489976E1,-1.9246819E2,-1.5082066E2,-9.930436E1,-1.3475706E2,-2.2434465E2,-2.518846E2,-1.8626712E2,-2.1449918E2,1.793714E2,3.0952252E2,1.0218096E2,1.8259476E2,3.1034317E2,4.3486377E2,6.6238716E1,-4.140938E1,3.3708282E2,2.0299461E2,-1.1635757E2,-1.8649724E2,-8.886415E1,1.2062405E2,-5.0683227E0,3.6736383E2,8.4237836E2,4.7820905E2,1.0395248E3,6.96906E2,4.2554142E1,2.8359933E2,4.8758282E2,1.0444674E2,1.760589E2,2.9919043E2,9.449654E1,-1.162748E2,5.3593243E2,1.5855536E3,1.9368389E3,2.733195E3,7.0817535E2,1.4954014E3,1.0583285E3,2.7993842E2],"categories":[],"categories_nodes":[],"categories_segments":[],"categories_sizes":[],"default_left":[0,0,0,0,0,0,0,0,0,0,0,0,0,0,0,0,0,0,0,0,0,0,0,0,0,0,0,0,0,0,0,0,0,0,0,0,0,0,0,0,0,0,0,0,0,0,0,0,0,0,0,0,0,0,0,0,0,0,0,0,0,0,0,0,0,0,0,0,0,0,0,0,0,0,0,0,0,0,0,0,0,0,0,0,0,0,0,0,0,0,0,0,0,0,0,0,0,0,0,0,0,0,0,0,0,0,0,0,0],"id":2,"left_children":[1,3,5,7,9,11,13,15,17,19,21,23,25,27,-1,29,31,33,35,37,39,41,43,45,47,49,51,53,55,57,59,61,63,65,67,69,71,73,75,77,-1,79,81,83,85,87,89,-1,91,93,95,97,99,101,103,105,107,-1,-1,-1,-1,-1,-1,-1,-1,-1,-1,-1,-1,-1,-1,-1,-1,-1,-1,-1,-1,-1,-1,-1,-1,-1,-1,-1,-1,-1,-1,-1,-1,-1,-1,-1,-1,-1,-1,-1,-1,-1,-1,-1,-1,-1,-1,-1,-1,-1,-1,-1,-1],"loss_changes":[1.9700279E11,1.743019E10,4.4402442E10,7.5080745E9,6.9887734E9,1.926094E10,3.549713E10,5.845766E9,1.1327427E9,3.0810542E9,1.4532195E9,8.628511E9,1.8943524E9,2.5541083E10,0E0,5.7979904E8,1.6676653E9,5.0999808E8,1.6426394E8,3.6527104E8,1.793279E9,8.228519E8,1.6155302E8,2.4013005E9,2.989179E9,6.172211E8,2.4101107E8,2.740781E9,5.4183977E9,1.3011456E8,1.2454195E8,1.00605984E9,1.3561958E8,9.836237E7,1.2698624E8,5.89824E6,1.2524544E7,8.887898E7,1.4199142E8,2.0392243E8,0E0,4.5455037E8,4.2022784E7,1.943648E7,9.779997E7,5.6326656E7,2.2387098E9,0E0,6.6831155E8,8.030054E7,1.3410202E8,5.860531E7,8.19305E7,2.7885568E8,6.043648E8,4.7124644E9,1.0185321E9,0E0,0E0,0E0,0E0,0E0,0E0,0E0,0E0,0E0,0E0,0E0,0E0,0E0,0E0,0E0,0E0,0E0,0E0,0E0,0E0,0E0,0E0,0E0,0E0,0E0,0E0,0E0,0E0,0E0,0E0,0E0,0E0,0E0,0E0,0E0,0E0,0E0,0E0,0E0,0E0,0E0,0E0,0E0,0E0,0E0,0E0,0E0,0E0,0E0,0E0,0E0,0E0],"parents":[2147483647,0,0,1,1,2,2,3,3,4,4,5,5,6,6,7,7,8,8,9,9,10,10,11,11,12,12,13,13,15,15,16,16,17,17,18,18,19,19,20,20,21,21,22,22,23,23,24,24,25,25,26,26,27,27,28,28,29,29,30,30,31,31,32,32,33,33,34,34,35,35,36,36,37,37,38,38,39,39,41,41,42,42,43,43,44,44,45,45,46,46,48,48,49,49,50,50,51,51,52,52,53,53,54,54,55,55,56,56],"right_children":[2,4,6,8,10,12,14,16,18,20,22,24,26,28,-1,30,32,34,36,38,40,42,44,46,48,50,52,54,56,58,60,62,64,66,68,70,72,74,76,78,-1,80,82,84,86,88,90,-1,92,94,96,98,100,102,104,106,108,-1,-1,-1,-1,-1,-1,-1,-1,-1,-1,-1,-1,-1,-1,-1,-1,-1,-1,-1,-1,-1,-1,-1,-1,-1,-1,-1,-1,-1,-1,-1,-1,-1,-1,-1,-1,-1,-1,-1,-1,-1,-1,-1,-1,-1,-1,-1,-1,-1,-1,-1,-1],"split_conditions":[1.6762E2,1.6082E4,2.35E2,7E0,6E0,7E0,5.0224E5,8.51514E3,1E1,2.04594E4,1E1,5.55818E4,9E0,6E0,8.052825E3,7.39E1,5E0,8.4796E3,1.197E3,3E0,4.82116E4,3.8571E4,2.50346E4,3.29122E4,4E0,5.85918E4,1E1,7.942196E4,1E1,9.98E2,4E0,1.1651526E4,1.12918E4,7.39E1,8E0,1.3E1,1.3E1,1.2337E2,1.91694E4,2.5886E4,9.94963E2,8E0,8E0,1.1E1,1E0,9.933E3,5E0,1.5445555E3,6E0,1.44E5,1E0,1.877E2,1.5E1,4.5924E4,2.6149E2,1.21273516E5,3.14E3,-1.853242E2,-1.4411174E2,-7.584581E1,-1.1497847E2,-1.0705977E1,7.386217E1,-7.833833E1,-4.489976E1,-1.9246819E2,-1.5082066E2,-9.930436E1,-1.3475706E2,-2.2434465E2,-2.518846E2,-1.8626712E2,-2.1449918E2,1.793714E2,3.0952252E2,1.0218096E2,1.8259476E2,3.1034317E2,4.3486377E2,6.6238716E1,-4.140938E1,3.3708282E2,2.0299461E2,-1.1635757E2,-1.8649724E2,-8.886415E1,1.2062405E2,-5.0683227E0,3.6736383E2,8.4237836E2,4.7820905E2,1.0395248E3,6.96906E2,4.2554142E1,2.8359933E2,4.8758282E2,1.0444674E2,1.760589E2,2.9919043E2,9.449654E1,-1.162748E2,5.3593243E2,1.5855536E3,1.9368389E3,2.733195E3,7.0817535E2,1.4954014E3,1.0583285E3,2.7993842E2],"split_indices":[5,1,5,7,7,7,1,1,7,1,7,1,7,7,0,5,7,1,4,7,1,1,1,1,7,1,7,1,7,4,7,1,1,5,7,7,7,5,1,1,0,7,7,7,11,1,7,0,7,9,52,5,7,1,5,1,10,0,0,0,0,0,0,0,0,0,0,0,0,0,0,0,0,0,0,0,0,0,0,0,0,0,0,0,0,0,0,0,0,0,0,0,0,0,0,0,0,0,0,0,0,0,0,0,0,0,0,0,0],"split_type":[0,0,0,0,0,0,0,0,0,0,0,0,0,0,0,0,0,0,0,0,0,0,0,0,0,0,0,0,0,0,0,0,0,0,0,0,0,0,0,0,0,0,0,0,0,0,0,0,0,0,0,0,0,0,0,0,0,0,0,0,0,0,0,0,0,0,0,0,0,0,0,0,0,0,0,0,0,0,0,0,0,0,0,0,0,0,0,0,0,0,0,0,0,0,0,0,0,0,0,0,0,0,0,0,0,0,0,0,0],"sum_hessian":[9.773E3,8.827E3,9.46E2,7.62E3,1.207E3,7.54E2,1.92E2,4.867E3,2.753E3,5.58E2,6.49E2,3.98E2,3.56E2,1.91E2,1E0,1.936E3,2.931E3,1.768E3,9.85E2,3.64E2,1.94E2,4.43E2,2.06E2,2.71E2,1.27E2,1.66E2,1.9E2,6.7E1,1.24E2,1.053E3,8.83E2,1.703E3,1.228E3,6.69E2,1.099E3,3.91E2,5.94E2,6.6E1,2.98E2,1.83E2,1.1E1,4.05E2,3.8E1,8.2E1,1.24E2,8.6E1,1.85E2,3E1,9.7E1,9E1,7.6E1,8.1E1,1.09E2,2.5E1,4.2E1,8.2E1,4.2E1,2.79E2,7.74E2,3.41E2,5.42E2,1.208E3,4.95E2,6.45E2,5.83E2,4.08E2,2.61E2,4.39E2,6.6E2,2.44E2,1.47E2,4.92E2,1.02E2,3E1,3.6E1,2.22E2,7.6E1,1.23E2,6E1,2.41E2,1.64E2,1.5E1,2.3E1,2E1,6.2E1,1.19E2,5E0,1E0,8.5E1,1.06E2,7.9E1,6.6E1,3.1E1,4E0,8.6E1,7.3E1,3E0,6.7E1,1.4E1,1.05E2,4E0,2E0,2.3E1,2.3E1,1.9E1,4.4E1,3.8E1,4E0,3.8E1],"tree_param":{"num_deleted":"0","num_feature":"125","num_nodes":"109","size_leaf_vector":"1"}},{"base_weights":[2.200059E1,-1.1421073E3,1.6085953E4,-1.6205481E3,5.677578E3,1.5635841E4,7.851505E3,-2.8498108E3,-6.848508E2,7.293085E3,1.8975209E3,2.1576986E4,8.125914E3,-2.4017288E3,-3.8405981E3,1.4518483E2,-2.1726982E3,6.213027E3,1.5939362E4,-1.1233195E3,3.404742E3,1.6549441E4,3.5310816E4,7.523194E3,2.4971162E3,-3.0092068E3,-1.8497037E3,-4.119261E3,-3.0929854E3,-3.3140192E2,2.3086138E3,-2.46712E3,1.05214935E2,2.4912668E3,6.6749565E3,1.9795764E4,6.6497495E3,-1.6725417E3,1.6762361E2,4.263565E3,1.6878234E3,1.3794546E4,2.1789518E4,2.255796E3,2.8348984E4,1.1623073E4,4.2774146E3,-1.772225E2,-1.3884065E2,-7.1627495E1,-1.1570849E2,-1.9488371E2,-2.3180327E2,-1.3606366E2,-1.8232971E2,1.2862842E1,-5.6167847E1,1.6517117E2,7.000543E1,-1.0535964E2,-1.7386845E2,-1.5455661E1,2.2917595E2,1.7875237E2,1.149367E1,3.4508154E2,1.8665062E2,1.1199106E3,7.424942E2,3.458435E2,7.275149E1,6.825103E1,-1.00179924E2,2.1731908E2,1.0760195E2,9.393539E1,-7.099551E1,3.646435E2,7.493509E2,1.5510072E3,9.311215E2,1.0686675E3,1.8324459E3,3.8481784E2,9.3473285E2,1.2790209E2,3.7738345E2],"categories":[],"categories_nodes":[],"categories_segments":[],"categories_sizes":[],"default_left":[0,0,0,0,0,0,0,0,0,0,0,0,0,0,0,0,0,0,0,0,0,0,0,0,0,0,0,0,0,0,0,0,0,0,0,0,0,0,0,0,0,0,0,0,0,0,0,0,0,0,0,0,0,0,0,0,0,0,0,0,0,0,0,0,0,0,0,0,0,0,0,0,0,0,0,0,0,0,0,0,0,0,0,0,0,0,0],"id":3,"left_children":[1,3,5,7,9,11,-1,13,15,17,19,21,23,25,27,29,31,33,35,37,39,41,43,45,-1,47,49,51,53,55,57,59,61,63,65,67,69,71,-1,73,75,77,79,-1,81,83,85,-1,-1,-1,-1,-1,-1,-1,-1,-1,-1,-1,-1,-1,-1,-1,-1,-1,-1,-1,-1,-1,-1,-1,-1,-1,-1,-1,-1,-1,-1,-1,-1,-1,-1,-1,-1,-1,-1,-1,-1],"loss_changes":[1.8348578E11,2.9860702E10,3.960588E10,9.832409E9,3.6501873E9,2.9361488E10,0E0,1.6311849E9,5.997312E9,3.8231306E9,8.27931E8,2.4894128E10,7.0341325E9,8.4855296E8,2.266327E8,3.215615E9,1.166551E9,6.280694E8,1.516289E9,1.555576E8,1.7122189E8,3.6259758E9,5.410644E9,3.8227087E9,0E0,1.4079078E8,2.5573325E8,7.743795E7,5.5104256E7,1.1918738E9,5.042089E8,5.5264154E8,3.725143E8,1.0456494E8,1.963008E8,7.927398E7,1.075008E7,5.804325E7,0E0,4.635904E6,2.758276E7,1.2940083E9,2.1118771E9,0E0,2.6905272E9,3.410436E9,9.028298E8,0E0,0E0,0E0,0E0,0E0,0E0,0E0,0E0,0E0,0E0,0E0,0E0,0E0,0E0,0E0,0E0,0E0,0E0,0E0,0E0,0E0,0E0,0E0,0E0,0E0,0E0,0E0,0E0,0E0,0E0,0E0,0E0,0E0,0E0,0E0,0E0,0E0,0E0,0E0,0E0],"parents":[2147483647,0,0,1,1,2,2,3,3,4,4,5,5,7,7,8,8,9,9,10,10,11,11,12,12,13,13,14,14,15,15,16,16,17,17,18,18,19,19,20,20,21,21,22,22,23,23,25,25,26,26,27,27,28,28,29,29,30,30,31,31,32,32,33,33,34,34,35,35,36,36,37,37,39,39,40,40,41,41,42,42,44,44,45,45,46,46],"right_children":[2,4,6,8,10,12,-1,14,16,18,20,22,24,26,28,30,32,34,36,38,40,42,44,46,-1,48,50,52,54,56,58,60,62,64,66,68,70,72,-1,74,76,78,80,-1,82,84,86,-1,-1,-1,-1,-1,-1,-1,-1,-1,-1,-1,-1,-1,-1,-1,-1,-1,-1,-1,-1,-1,-1,-1,-1,-1,-1,-1,-1,-1,-1,-1,-1,-1,-1,-1,-1,-1,-1,-1,-1],"split_conditions":[1.745E2,1.41E2,5.0224E5,8.643E3,8E0,7E0,7.851505E3,8E0,7E0,4.42728E4,1.6762E2,2.35E2,5.998E3,7.39E1,2E5,1.55574E4,2.457E6,1.27796E4,7E0,1.636E1,1E1,6.09826E4,2.5E4,9E0,2.4971162E3,3.1648E3,5E0,1.2E1,1E1,5E0,5E0,1E1,3.8571E4,1.23496E4,1E0,5E0,5.85918E4,3.5E3,1.6762361E2,6.9316E4,1.4E1,1E0,2E4,2.255796E3,8.944E4,2.495E3,2.35E2,-1.772225E2,-1.3884065E2,-7.1627495E1,-1.1570849E2,-1.9488371E2,-2.3180327E2,-1.3606366E2,-1.8232971E2,1.2862842E1,-5.6167847E1,1.6517117E2,7.000543E1,-1.0535964E2,-1.7386845E2,-1.5455661E1,2.2917595E2,1.7875237E2,1.149367E1,3.4508154E2,1.8665062E2,1.1199106E3,7.424942E2,3.458435E2,7.275149E1,6.825103E1,-1.00179924E2,2.1731908E2,1.0760195E2,9.393539E1,-7.099551E1,3.646435E2,7.493509E2,1.5510072E3,9.311215E2,1.0686675E3,1.8324459E3,3.8481784E2,9.3473285E2,1.2790209E2,3.7738345E2],"split_indices":[5,5,1,1,7,7,0,7,7,0,5,5,4,5,9,1,8,0,7,3,7,1,2,7,0,0,7,7,7,7,7,7,1,1,37,7,0,10,0,0,7,119,2,0,1,4,5,0,0,0,0,0,0,0,0,0,0,0,0,0,0,0,0,0,0,0,0,0,0,0,0,0,0,0,0,0,0,0,0,0,0,0,0,0,0,0,0],"split_type":[0,0,0,0,0,0,0,0,0,0,0,0,0,0,0,0,0,0,0,0,0,0,0,0,0,0,0,0,0,0,0,0,0,0,0,0,0,0,0,0,0,0,0,0,0,0,0,0,0,0,0,0,0,0,0,0,0,0,0,0,0,0,0,0,0,0,0,0,0,0,0,0,0,0,0,0,0,0,0,0,0,0,0,0,0,0,0],"sum_hessian":[9.81E3,9.148E3,6.62E2,8.549E3,5.99E2,6.61E2,1E0,3.694E3,4.855E3,4.19E2,1.8E2,3.68E2,2.93E2,2.546E3,1.148E3,3.117E3,1.738E3,3.74E2,4.5E1,6E1,1.2E2,2.71E2,9.7E1,2.9E2,3E0,1.21E3,1.336E3,8.33E2,3.15E2,2.555E3,5.62E2,1.539E3,1.99E2,4.2E1,3.32E2,3.1E1,1.4E1,5.4E1,6E0,7.9E1,4.1E1,1.8E2,9.1E1,3.8E1,5.9E1,1.27E2,1.63E2,3.62E2,8.48E2,7.06E2,6.3E2,5.89E2,2.44E2,1.92E2,1.23E2,1.466E3,1.089E3,2.67E2,2.95E2,1.137E3,4.02E2,1.83E2,1.6E1,2.8E1,1.4E1,3.07E2,2.5E1,1.8E1,1.3E1,1.3E1,1E0,5E0,4.9E1,7.5E1,4E0,3.9E1,2E0,2.9E1,1.51E2,2.1E1,7E1,3.4E1,2.5E1,8.3E1,4.4E1,1.08E2,5.5E1],"tree_param":{"num_deleted":"0","num_feature":"125","num_nodes":"87","size_leaf_vector":"1"}},{"base_weights":[6.557023E1,-1.0843224E3,1.535753E4,-1.5191321E3,5.351991E3,1.49310625E4,7.6552163E3,-2.4800928E3,-3.725703E2,6.844581E3,1.9012452E3,2.723901E4,1.1319806E4,-1.9422443E3,-3.3589634E3,5.1234467E2,-1.9289257E3,5.9691714E3,1.5295394E4,-1.4573317E3,3.0404417E3,1.542653E4,3.615866E4,1.5664996E4,5.3793486E3,-2.6742532E3,-1.3108435E3,-2.93798E3,-3.9276426E3,-2.3654188E1,2.2956128E3,-2.2319941E3,-3.379151E1,2.338211E3,6.4724683E3,1.8483734E4,6.0789746E3,-2.0771536E3,2.9177031E3,4.1782515E3,1.1136248E3,1.7306768E4,1.0048623E4,3.3573875E4,5.4829684E4,1.2358315E4,2.619414E4,4.447634E3,1.4707045E4,-1.57564E2,-1.1776394E2,-3.4230724E1,-8.223665E1,-1.701458E2,-1.3145224E2,-2.1541467E2,-1.8000671E2,4.827354E1,-2.850965E1,1.9320737E2,8.8432274E1,-9.383893E1,-1.6258891E2,4.174017E1,-8.919123E1,1.6118779E2,1.4658423E1,3.3887045E2,1.4561427E2,9.6276996E2,4.6164087E2,3.2015707E2,7.09327E1,-7.06798E1,-1.3680797E2,1.59365E2,3.9242947E1,1.9241057E2,3.0848596E2,-8.335738E1,7.653554E1,3.6665775E2,9.3972186E2,1.7130257E2,6.0138715E2,1.7264817E3,6.2613586E2,3.328403E3,1.1757349E3,7.6989056E2,5.0850934E2,9.660422E2,1.608686E3,1.3819781E2,3.3594128E2,1.0779111E3,1.9690123E2],"categories":[],"categories_nodes":[],"categories_segments":[],"categories_sizes":[],"default_left":[0,0,0,0,0,0,0,0,0,0,0,0,0,0,0,0,0,0,0,0,0,0,0,0,0,0,0,0,0,0,0,0,0,0,0,0,0,0,0,0,0,0,0,0,0,0,0,0,0,0,0,0,0,0,0,0,0,0,0,0,0,0,0,0,0,0,0,0,0,0,0,0,0,0,0,0,0,0,0,0,0,0,0,0,0,0,0,0,0,0,0,0,0,0,0,0,0],"id":4,"left_children":[1,3,5,7,9,11,-1,13,15,17,19,21,23,25,27,29,31,33,35,37,39,41,43,45,47,49,51,53,55,57,59,61,63,65,67,69,71,73,75,77,79,81,83,85,87,89,91,93,95,-1,-1,-1,-1,-1,-1,-1,-1,-1,-1,-1,-1,-1,-1,-1,-1,-1,-1,-1,-1,-1,-1,-1,-1,-1,-1,-1,-1,-1,-1,-1,-1,-1,-1,-1,-1,-1,-1,-1,-1,-1,-1,-1,-1,-1,-1,-1,-1],"loss_changes":[1.717255E11,2.5427558E10,3.7836538E10,9.374298E9,2.9485517E9,3.0004625E10,0E0,2.1816033E9,5.3460654E9,2.875269E9,6.739947E8,1.5668126E10,1.3570503E10,1.3248307E9,4.0885453E8,2.3657326E9,8.08043E8,6.518856E8,9.7488486E8,1.28088936E8,2.825449E8,5.1368858E8,2.3578214E9,1.0295321E10,1.890008E9,1.9494912E8,3.2191974E8,1.3655552E8,7.724237E7,1.0298437E9,4.6596173E8,4.3329792E8,2.979028E8,8.235979E7,3.276677E8,1.4961664E7,7.53408E6,1.3623712E7,9.48468E5,3.0153344E7,6.054298E7,5.8921165E8,2.2092966E8,1.1570545E9,1.7429565E9,1.3996933E9,2.337534E9,7.691643E8,1.3907123E9,0E0,0E0,0E0,0E0,0E0,0E0,0E0,0E0,0E0,0E0,0E0,0E0,0E0,0E0,0E0,0E0,0E0,0E0,0E0,0E0,0E0,0E0,0E0,0E0,0E0,0E0,0E0,0E0,0E0,0E0,0E0,0E0,0E0,0E0,0E0,0E0,0E0,0E0,0E0,0E0,0E0,0E0,0E0,0E0,0E0,0E0,0E0,0E0],"parents":[2147483647,0,0,1,1,2,2,3,3,4,4,5,5,7,7,8,8,9,9,10,10,11,11,12,12,13,13,14,14,15,15,16,16,17,17,18,18,19,19,20,20,21,21,22,22,23,23,24,24,25,25,26,26,27,27,28,28,29,29,30,30,31,31,32,32,33,33,34,34,35,35,36,36,37,37,38,38,39,39,40,40,41,41,42,42,43,43,44,44,45,45,46,46,47,47,48,48],"right_children":[2,4,6,8,10,12,-1,14,16,18,20,22,24,26,28,30,32,34,36,38,40,42,44,46,48,50,52,54,56,58,60,62,64,66,68,70,72,74,76,78,80,82,84,86,88,90,92,94,96,-1,-1,-1,-1,-1,-1,-1,-1,-1,-1,-1,-1,-1,-1,-1,-1,-1,-1,-1,-1,-1,-1,-1,-1,-1,-1,-1,-1,-1,-1,-1,-1,-1,-1,-1,-1,-1,-1,-1,-1,-1,-1,-1,-1,-1,-1,-1,-1],"split_conditions":[1.745E2,1.41E2,5.0224E5,1.022E6,8E0,2.8321E4,7.6552163E3,7E0,7E0,5.8615E6,3.9085E6,6.1312266E4,8E0,7.19E5,1E1,1.55574E4,2.4861428E6,1.27796E4,7E0,2.956E3,1E1,5E0,2.2875E6,2.35E2,1.6159938E5,4.1796E3,4E0,7.19E5,7.138267E5,4E0,4E0,1E1,1.1E1,1.23496E4,1E0,6.53944E4,6.9316E4,1.1E1,1.1E5,1E0,4.99E5,1.799E3,1.86E2,8E0,2E4,5E0,8.944E4,2.148E3,1.1E1,-1.57564E2,-1.1776394E2,-3.4230724E1,-8.223665E1,-1.701458E2,-1.3145224E2,-2.1541467E2,-1.8000671E2,4.827354E1,-2.850965E1,1.9320737E2,8.8432274E1,-9.383893E1,-1.6258891E2,4.174017E1,-8.919123E1,1.6118779E2,1.4658423E1,3.3887045E2,1.4561427E2,9.6276996E2,4.6164087E2,3.2015707E2,7.09327E1,-7.06798E1,-1.3680797E2,1.59365E2,3.9242947E1,1.9241057E2,3.0848596E2,-8.335738E1,7.653554E1,3.6665775E2,9.3972186E2,1.7130257E2,6.0138715E2,1.7264817E3,6.2613586E2,3.328403E3,1.1757349E3,7.6989056E2,5.0850934E2,9.660422E2,1.608686E3,1.3819781E2,3.3594128E2,1.0779111E3,1.9690123E2],"split_indices":[5,5,1,8,7,2,0,7,7,8,8,0,7,8,7,1,8,0,7,4,7,7,9,5,1,0,7,8,8,7,7,7,7,1,37,0,0,7,2,46,9,4,5,7,2,7,1,4,7,0,0,0,0,0,0,0,0,0,0,0,0,0,0,0,0,0,0,0,0,0,0,0,0,0,0,0,0,0,0,0,0,0,0,0,0,0,0,0,0,0,0,0,0,0,0,0,0],"split_type":[0,0,0,0,0,0,0,0,0,0,0,0,0,0,0,0,0,0,0,0,0,0,0,0,0,0,0,0,0,0,0,0,0,0,0,0,0,0,0,0,0,0,0,0,0,0,0,0,0,0,0,0,0,0,0,0,0,0,0,0,0,0,0,0,0,0,0,0,0,0,0,0,0,0,0,0,0,0,0,0,0,0,0,0,0,0,0,0,0,0,0,0,0,0,0,0,0],"sum_hessian":[9.764E3,9.082E3,6.82E2,8.508E3,5.74E2,6.81E2,1E0,4.628E3,3.88E3,4E2,1.74E2,1.53E2,5.28E2,2.873E3,1.755E3,2.474E3,1.406E3,3.64E2,3.6E1,4.4E1,1.3E2,6.7E1,8.6E1,3.04E2,2.24E2,1.329E3,1.544E3,1.012E3,7.43E2,1.903E3,5.71E2,1.212E3,1.94E2,4.5E1,3.19E2,2.6E1,1E1,3.9E1,5E0,8.1E1,4.9E1,4.8E1,1.9E1,7.8E1,8E0,2.33E2,7.1E1,2.05E2,1.9E1,5.29E2,8E2,5.38E2,1.006E3,4E2,6.12E2,3.38E2,4.05E2,6.77E2,1.226E3,1.42E2,4.29E2,9.01E2,3.11E2,1.3E2,6.4E1,3.1E1,1.4E1,2.93E2,2.6E1,2.3E1,3E0,9E0,1E0,2.1E1,1.8E1,4E0,1E0,7.2E1,9E0,6E0,4.3E1,7E0,4.1E1,5E0,1.4E1,7.4E1,4E0,5E0,3E0,9.5E1,1.38E2,3.5E1,3.6E1,1.19E2,8.6E1,1.1E1,8E0],"tree_param":{"num_deleted":"0","num_feature":"125","num_nodes":"97","size_leaf_vector":"1"}},{"base_weights":[2.2462433E1,-1.236185E3,1.1984957E4,-1.718821E3,1.8151848E3,1.167912E4,7.463836E3,-2.7251487E3,-9.887752E2,9.33241E2,4.659888E3,8.689307E3,2.2583664E4,-3.1318848E3,-2.1465747E3,-5.2225727E1,-1.4487404E3,2.4456135E3,3.8677605E1,4.1963403E3,1.4142908E4,1.3314548E4,6.1999595E3,3.3091113E4,1.3043559E4,-2.6409485E3,-3.3327998E3,-1.981394E3,-1.6430644E2,-7.20377E2,6.533254E2,-2.1831104E3,-1.0318008E3,4.3062583E3,1.9059274E3,-1.5354598E3,6.386108E2,4.7548145E3,-7.242764E2,9.641802E2,2.0610747E3,1.945002E4,1.1663355E4,3.1232961E3,7.5183906E3,1.3417287E4,3.450361E4,6.566735E3,1.8609777E4,-1.5821562E2,-1.1533594E2,-1.9187105E2,-1.5782791E2,-8.685397E1,-1.2139276E2,-4.4071335E1,2.7359183E0,1.7008753E1,8.5682205E1,-9.119906E1,-1.3177693E2,-1.4461408E1,-7.289498E1,1.4567307E2,3.3198007E2,7.037467E1,1.4603926E2,-8.7110954E1,1.3312158E2,7.8928856E1,2.969715E0,1.7977E2,3.076706E2,1.234448E2,-1.0291448E2,2.5363484E2,-8.187861E1,6.6796594E2,1.3126489E3,4.5472882E2,7.0352936E2,2.3637671E2,1.1320851E2,5.066211E2,2.6119376E2,1.4282097E2,8.230753E2,2.0359633E3,1.4815321E3,4.482819E2,8.35327E1,6.672028E2,1.2906855E3],"categories":[],"categories_nodes":[],"categories_segments":[],"categories_sizes":[],"default_left":[0,0,0,0,0,0,0,0,0,0,0,0,0,0,0,0,0,0,0,0,0,0,0,0,0,0,0,0,0,0,0,0,0,0,0,0,0,0,0,0,0,0,0,0,0,0,0,0,0,0,0,0,0,0,0,0,0,0,0,0,0,0,0,0,0,0,0,0,0,0,0,0,0,0,0,0,0,0,0,0,0,0,0,0,0,0,0,0,0,0,0,0,0],"id":5,"left_children":[1,3,5,7,9,11,-1,13,15,17,19,21,23,25,27,29,31,33,35,37,39,41,43,45,47,49,51,53,-1,55,57,59,61,63,65,67,69,71,73,-1,75,77,79,81,83,85,87,89,91,-1,-1,-1,-1,-1,-1,-1,-1,-1,-1,-1,-1,-1,-1,-1,-1,-1,-1,-1,-1,-1,-1,-1,-1,-1,-1,-1,-1,-1,-1,-1,-1,-1,-1,-1,-1,-1,-1,-1,-1,-1,-1,-1,-1],"loss_changes":[1.4835207E11,1.3132249E10,3.764205E10,5.6527606E9,3.0514527E9,3.035236E10,0E0,7.547945E8,1.922496E9,1.2594678E9,1.2066514E9,8.4031447E9,1.9717054E10,1.7840947E8,2.4553216E8,6.939219E8,9.141678E8,3.392334E8,5.543856E8,7.6190106E8,7.676723E8,2.3767736E9,1.9276308E9,2.177024E9,3.735294E9,8.99584E7,1.0732646E8,1.2362035E8,0E0,9.441891E7,2.3715706E8,1.7115853E8,6.0423654E8,2.30896E8,1.3246573E8,1.4524688E8,2.3129491E8,3.8002125E8,1.2861399E8,0E0,6.400154E7,1.8453217E9,1.1396833E9,1.9051955E8,1.9623752E9,2.1017587E8,1.4588723E9,5.840279E8,1.8177741E9,0E0,0E0,0E0,0E0,0E0,0E0,0E0,0E0,0E0,0E0,0E0,0E0,0E0,0E0,0E0,0E0,0E0,0E0,0E0,0E0,0E0,0E0,0E0,0E0,0E0,0E0,0E0,0E0,0E0,0E0,0E0,0E0,0E0,0E0,0E0,0E0,0E0,0E0,0E0,0E0,0E0,0E0,0E0,0E0],"parents":[2147483647,0,0,1,1,2,2,3,3,4,4,5,5,7,7,8,8,9,9,10,10,11,11,12,12,13,13,14,14,15,15,16,16,17,17,18,18,19,19,20,20,21,21,22,22,23,23,24,24,25,25,26,26,27,27,29,29,30,30,31,31,32,32,33,33,34,34,35,35,36,36,37,37,38,38,40,40,41,41,42,42,43,43,44,44,45,45,46,46,47,47,48,48],"right_children":[2,4,6,8,10,12,-1,14,16,18,20,22,24,26,28,30,32,34,36,38,40,42,44,46,48,50,52,54,-1,56,58,60,62,64,66,68,70,72,74,-1,76,78,80,82,84,86,88,90,92,-1,-1,-1,-1,-1,-1,-1,-1,-1,-1,-1,-1,-1,-1,-1,-1,-1,-1,-1,-1,-1,-1,-1,-1,-1,-1,-1,-1,-1,-1,-1,-1,-1,-1,-1,-1,-1,-1,-1,-1,-1,-1,-1,-1],"split_conditions":[1.6762E2,1.6082E4,5.0224E5,8.51514E3,1.41E2,2.35E2,7.463836E3,7.39E1,3.7895E4,6E4,7.184E6,4.128E4,4.3318E4,3E4,1E0,1.0815E6,9.25E3,2.3E4,1.0037667E4,1E0,6.59706E4,1.5E4,8.022222E3,6.09826E4,9E3,4.815E5,5.8E3,5.15E4,-1.6430644E2,1E0,1E0,5.7437E4,6.3E4,1.79826E4,1.040375E4,3.8571E4,8.9504E4,1E0,3.8E4,9.641802E2,1.4362E5,5.23396E4,6.3525E3,5.2752E4,7.1377E4,3.5E3,2E4,1E0,8.944E4,-1.5821562E2,-1.1533594E2,-1.9187105E2,-1.5782791E2,-8.685397E1,-1.2139276E2,-4.4071335E1,2.7359183E0,1.7008753E1,8.5682205E1,-9.119906E1,-1.3177693E2,-1.4461408E1,-7.289498E1,1.4567307E2,3.3198007E2,7.037467E1,1.4603926E2,-8.7110954E1,1.3312158E2,7.8928856E1,2.969715E0,1.7977E2,3.076706E2,1.234448E2,-1.0291448E2,2.5363484E2,-8.187861E1,6.6796594E2,1.3126489E3,4.5472882E2,7.0352936E2,2.3637671E2,1.1320851E2,5.066211E2,2.6119376E2,1.4282097E2,8.230753E2,2.0359633E3,1.4815321E3,4.482819E2,8.35327E1,6.672028E2,1.2906855E3],"split_indices":[5,1,1,1,5,5,0,5,2,2,8,2,2,2,113,8,10,2,10,96,1,2,10,1,10,8,10,2,0,123,123,2,2,1,10,1,2,39,2,0,1,1,10,2,2,10,2,122,1,0,0,0,0,0,0,0,0,0,0,0,0,0,0,0,0,0,0,0,0,0,0,0,0,0,0,0,0,0,0,0,0,0,0,0,0,0,0,0,0,0,0,0,0],"split_type":[0,0,0,0,0,0,0,0,0,0,0,0,0,0,0,0,0,0,0,0,0,0,0,0,0,0,0,0,0,0,0,0,0,0,0,0,0,0,0,0,0,0,0,0,0,0,0,0,0,0,0,0,0,0,0,0,0,0,0,0,0,0,0,0,0,0,0,0,0,0,0,0,0,0,0,0,0,0,0,0,0,0,0,0,0,0,0,0,0,0,0,0,0],"sum_hessian":[9.851E3,8.914E3,9.37E2,7.697E3,1.217E3,9.36E2,1E0,3.235E3,4.462E3,9.3E2,2.87E2,7.36E2,2E2,1.897E3,1.338E3,1.47E3,2.992E3,3.45E2,5.85E2,2.75E2,1.2E1,2.56E2,4.8E2,9.4E1,1.06E2,5.55E2,1.342E3,1.171E3,1.67E2,7.55E2,7.15E2,1.082E3,1.91E3,7.6E1,2.69E2,1.61E2,4.24E2,2.47E2,2.8E1,8E0,4E0,5.2E1,2.04E2,1.45E2,3.35E2,7E0,8.7E1,5E1,5.6E1,2.13E2,3.42E2,3.42E2,1E3,7.6E2,4.11E2,6.25E2,1.3E2,5.53E2,1.62E2,6.06E2,4.76E2,6.97E2,1.213E3,4.9E1,2.7E1,1.82E2,8.7E1,1.54E2,7E0,1.61E2,2.63E2,1.37E2,1.1E2,8E0,2E1,2E0,2E0,2.9E1,2.3E1,1.01E2,1.03E2,4.9E1,9.6E1,1.55E2,1.8E2,2E0,5E0,3.5E1,5.2E1,3.3E1,1.7E1,3.4E1,2.2E1],"tree_param":{"num_deleted":"0","num_feature":"125","num_nodes":"93","size_leaf_vector":"1"}},{"base_weights":[6.1992718E1,-9.69748E2,1.4064974E4,-1.3900673E3,5.0348286E3,1.3651505E4,7.2772407E3,-2.2216294E3,-3.4252164E2,4.578589E3,1.244154E4,2.0590701E4,8.33387E3,-2.8170293E3,-1.7084484E3,-6.551168E2,1.3123518E3,4.845543E3,-6.951942E2,1.7902045E4,5.927974E3,1.4946004E4,3.1330008E4,2.9629512E3,1.070294E4,-2.520332E3,-3.2193948E3,-1.110884E3,-2.003254E3,4.8003333E2,-1.1209036E3,4.1120703E2,2.401519E3,6.31697E3,3.9924028E3,2.207864E3,-2.1865303E3,1.038764E3,4.3465146E2,8.439256E2,9.402416E3,5.430741E3,1.6082786E4,2.7854123E4,4.7620277E4,2.4830393E3,9.25136E3,8.713129E3,1.57898E4,-1.5330211E2,-1.1298736E2,-1.7720956E2,-1.3974577E2,-6.860976E1,-3.6127285E1,-1.2543329E2,-7.9894005E1,4.8945193E0,8.614338E1,-9.236137E1,-3.706288E1,-2.8849958E1,3.9287457E1,2.0558105E2,9.0421135E1,2.8573288E2,5.650738E2,2.3885426E1,2.122158E2,7.75049E1,2.0319395E2,-1.15361694E2,-3.466675E-1,1.2795001E2,-7.713302E0,5.5528345E2,8.631341E1,4.3900998E2,9.5392136E1,1.1316206E3,7.2643677E2,1.7053627E3,1.1459924E3,2.4515308E3,6.616315E2,3.36318E1,1.6368513E2,6.739408E1,5.093937E2,5.8459564E2,3.4735242E2,1.245876E3,6.1747504E2],"categories":[],"categories_nodes":[],"categories_segments":[],"categories_sizes":[],"default_left":[0,0,0,0,0,0,0,0,0,0,0,0,0,0,0,0,0,0,0,0,0,0,0,0,0,0,0,0,0,0,0,0,0,0,0,0,0,0,0,0,0,0,0,0,0,0,0,0,0,0,0,0,0,0,0,0,0,0,0,0,0,0,0,0,0,0,0,0,0,0,0,0,0,0,0,0,0,0,0,0,0,0,0,0,0,0,0,0,0,0,0,0,0],"id":6,"left_children":[1,3,5,7,9,11,-1,13,15,17,19,21,23,25,27,29,31,33,35,37,39,41,43,45,47,49,51,53,55,57,59,61,63,65,67,69,71,-1,-1,73,75,77,79,81,83,85,87,89,91,-1,-1,-1,-1,-1,-1,-1,-1,-1,-1,-1,-1,-1,-1,-1,-1,-1,-1,-1,-1,-1,-1,-1,-1,-1,-1,-1,-1,-1,-1,-1,-1,-1,-1,-1,-1,-1,-1,-1,-1,-1,-1,-1,-1],"loss_changes":[1.4126632E11,2.2991604E10,3.4490606E10,7.4140344E9,1.9570616E9,2.4551473E10,0E0,1.4450115E9,1.9500668E9,7.9599206E8,1.1031675E9,1.7111581E10,4.816163E9,2.5392742E8,4.471726E8,1.6766368E9,5.869293E8,6.47638E8,1.2605178E8,2.9567386E8,2.9235693E8,1.9894804E9,4.2792714E9,3.3313862E8,2.5346007E9,1.7338573E8,1.180375E8,8.475667E7,3.4572288E8,4.3820128E8,6.185075E8,1.2222443E8,2.6742771E8,5.2085146E8,3.007785E8,5.908828E6,4.982616E6,0E0,0E0,1.4090552E7,1.1157293E8,2.4284435E8,1.4116946E9,1.8100511E9,1.2716442E8,1.5668557E8,4.548173E7,9.288448E8,1.9846328E9,0E0,0E0,0E0,0E0,0E0,0E0,0E0,0E0,0E0,0E0,0E0,0E0,0E0,0E0,0E0,0E0,0E0,0E0,0E0,0E0,0E0,0E0,0E0,0E0,0E0,0E0,0E0,0E0,0E0,0E0,0E0,0E0,0E0,0E0,0E0,0E0,0E0,0E0,0E0,0E0,0E0,0E0,0E0,0E0],"parents":[2147483647,0,0,1,1,2,2,3,3,4,4,5,5,7,7,8,8,9,9,10,10,11,11,12,12,13,13,14,14,15,15,16,16,17,17,18,18,19,19,20,20,21,21,22,22,23,23,24,24,25,25,26,26,27,27,28,28,29,29,30,30,31,31,32,32,33,33,34,34,35,35,36,36,39,39,40,40,41,41,42,42,43,43,44,44,45,45,46,46,47,47,48,48],"right_children":[2,4,6,8,10,12,-1,14,16,18,20,22,24,26,28,30,32,34,36,38,40,42,44,46,48,50,52,54,56,58,60,62,64,66,68,70,72,-1,-1,74,76,78,80,82,84,86,88,90,92,-1,-1,-1,-1,-1,-1,-1,-1,-1,-1,-1,-1,-1,-1,-1,-1,-1,-1,-1,-1,-1,-1,-1,-1,-1,-1,-1,-1,-1,-1,-1,-1,-1,-1,-1,-1,-1,-1,-1,-1,-1,-1,-1,-1],"split_conditions":[1.745E2,1.41E2,1E0,8.85E1,5.85918E4,4.2E4,7.2772407E3,7.19E5,6.73E5,1E0,3.8452E4,2.35E2,7.6E3,4.8E4,3.5318E4,3.684E4,1.537E1,4.7E4,4.0258E4,6.53944E4,7.5E3,1.799E3,1.856E6,6E0,2.35E2,5.045E5,9.25E3,2.092E1,9.25E3,1.176E2,8.9E3,1.299E1,3.1975E4,1.77E1,6.857143E3,6.75E3,9.6E3,1.038764E3,4.3465146E2,4.128E4,6.53944E4,3E4,1.2909E4,2.2E4,1.768E1,1.205E1,2.487E3,6.3E4,6.2E4,-1.5330211E2,-1.1298736E2,-1.7720956E2,-1.3974577E2,-6.860976E1,-3.6127285E1,-1.2543329E2,-7.9894005E1,4.8945193E0,8.614338E1,-9.236137E1,-3.706288E1,-2.8849958E1,3.9287457E1,2.0558105E2,9.0421135E1,2.8573288E2,5.650738E2,2.3885426E1,2.122158E2,7.75049E1,2.0319395E2,-1.15361694E2,-3.466675E-1,1.2795001E2,-7.713302E0,5.5528345E2,8.631341E1,4.3900998E2,9.5392136E1,1.1316206E3,7.2643677E2,1.7053627E3,1.1459924E3,2.4515308E3,6.616315E2,3.36318E1,1.6368513E2,6.739408E1,5.093937E2,5.8459564E2,3.4735242E2,1.245876E3,6.1747504E2],"split_indices":[5,5,15,5,0,2,0,8,9,96,2,5,10,2,2,2,3,2,2,0,10,4,9,6,5,8,10,3,10,5,10,3,2,3,10,10,10,0,0,2,0,2,2,2,3,3,4,2,2,0,0,0,0,0,0,0,0,0,0,0,0,0,0,0,0,0,0,0,0,0,0,0,0,0,0,0,0,0,0,0,0,0,0,0,0,0,0,0,0,0,0,0,0],"split_type":[0,0,0,0,0,0,0,0,0,0,0,0,0,0,0,0,0,0,0,0,0,0,0,0,0,0,0,0,0,0,0,0,0,0,0,0,0,0,0,0,0,0,0,0,0,0,0,0,0,0,0,0,0,0,0,0,0,0,0,0,0,0,0,0,0,0,0,0,0,0,0,0,0,0,0,0,0,0,0,0,0,0,0,0,0,0,0,0,0,0,0,0,0],"sum_hessian":[9.776E3,9.106E3,6.7E2,8.511E3,5.95E2,6.69E2,1E0,4.744E3,3.767E3,5.62E2,3.3E1,2.89E2,3.8E2,2.194E3,2.55E3,3.169E3,5.98E2,5.35E2,2.7E1,1.7E1,1.6E1,1.91E2,9.8E1,1.17E2,2.63E2,1.267E3,9.27E2,8.44E2,1.706E3,9.22E2,2.247E3,3.28E2,2.7E2,1.94E2,3.41E2,9E0,1.8E1,1.2E1,5E0,7E0,9E0,2.1E1,1.7E2,8.3E1,1.5E1,1.1E2,7E0,1.91E2,7.2E1,4.06E2,8.61E2,5.21E2,4.06E2,5.03E2,3.41E2,7.57E2,9.49E2,7.06E2,2.16E2,7.7E2,1.477E3,9E1,2.38E2,6.8E1,2.02E2,1.75E2,1.9E1,2.3E1,3.18E2,8E0,1E0,1.7E1,1E0,2E0,5E0,7E0,2E0,1E1,1.1E1,3E1,1.4E2,3.4E1,4.9E1,1.4E1,1E0,3.4E1,7.6E1,1E0,6E0,6.9E1,1.22E2,1.8E1,5.4E1],"tree_param":{"num_deleted":"0","num_feature":"125","num_nodes":"93","size_leaf_vector":"1"}},{"base_weights":[-3.223687E1,-1.1469727E3,1.0384892E4,-1.5614623E3,1.5457302E3,1.5199461E4,5.036066E3,-9.5004913E2,-2.623167E3,3.5906719E3,-1.3462187E2,1.0213596E4,2.4083533E4,3.579913E3,1.0259518E4,-2.0095398E3,-2.5831998E2,-2.224878E3,-3.3400928E3,2.4309873E3,6.3177812E3,5.261342E2,-2.330416E3,5.5988296E3,1.2178189E4,3.054873E4,1.9127393E4,5.6616685E3,1.823087E3,1.7483203E4,5.7831313E3,-2.525693E3,-1.6123314E3,2.686297E2,-9.982368E2,-2.7531458E3,-1.9154718E3,-3.7519219E3,-3.0903086E3,4.2591577E3,1.9704469E3,5.715064E3,7.3633813E2,2.2585722E2,3.9886868E3,-2.8271958E3,-1.571697E3,3.8996672E3,6.2564536E3,1.4579384E4,9.192509E3,2.3524738E4,3.6282207E4,1.660934E4,2.887275E4,3.6761162E3,7.601836E3,3.068917E3,8.026213E2,1.0635106E4,2.219437E4,7.837946E3,3.2481085E2,-1.448301E2,-1.1686947E2,-5.4703846E1,-9.472339E1,-2.0803549E1,4.765099E1,-7.0961845E1,-3.7606884E1,-1.5236739E2,-1.1969854E2,-7.75599E1,-1.07829666E2,-1.7693202E2,-2.0090327E2,-1.4940683E2,-1.7680875E2,3.789177E1,2.2763187E2,6.620757E1,1.23752945E2,3.5687878E2,2.408186E2,5.1306183E1,-3.5912003E1,2.5473933E2,1.2490045E2,-1.454023E2,2.4340569E1,-5.459953E1,-9.229665E1,2.0227325E2,-8.211792E0,3.965577E2,2.593516E2,6.38699E2,9.464795E2,2.9732327E2,5.804233E2,1.2201338E3,5.0905484E2,6.777903E2,1.8560801E3,7.047269E2,9.607059E2,5.4912585E2,1.5125208E3,1.9785362E2,-7.210107E1,3.2626968E2,5.0163156E2,1.3864948E2,3.6837662E2,4.7882122E1,-1.2911707E2,2.9093878E2,6.078507E2,1.2409218E3,6.7003723E2,3.2734225E2,7.5694794E2,-1.981819E1,2.0314027E2],"categories":[],"categories_nodes":[],"categories_segments":[],"categories_sizes":[],"default_left":[0,0,0,0,0,0,0,0,0,0,0,0,0,0,0,0,0,0,0,0,0,0,0,0,0,0,0,0,0,0,0,0,0,0,0,0,0,0,0,0,0,0,0,0,0,0,0,0,0,0,0,0,0,0,0,0,0,0,0,0,0,0,0,0,0,0,0,0,0,0,0,0,0,0,0,0,0,0,0,0,0,0,0,0,0,0,0,0,0,0,0,0,0,0,0,0,0,0,0,0,0,0,0,0,0,0,0,0,0,0,0,0,0,0,0,0,0,0,0,0,0,0,0,0,0],"id":7,"left_children":[1,3,5,7,9,11,13,15,17,19,21,23,25,27,29,31,33,35,37,39,41,43,45,47,49,51,53,55,57,59,61,63,65,67,69,71,73,75,77,79,81,83,-1,85,87,89,91,93,95,97,99,101,103,105,107,109,111,113,115,117,119,121,123,-1,-1,-1,-1,-1,-1,-1,-1,-1,-1,-1,-1,-1,-1,-1,-1,-1,-1,-1,-1,-1,-1,-1,-1,-1,-1,-1,-1,-1,-1,-1,-1,-1,-1,-1,-1,-1,-1,-1,-1,-1,-1,-1,-1,-1,-1,-1,-1,-1,-1,-1,-1,-1,-1,-1,-1,-1,-1,-1,-1,-1,-1],"loss_changes":[1.1424257E11,9.921168E9,2.441388E10,4.9971876E9,4.0758428E9,2.190141E10,3.4012488E9,3.5825341E9,7.960883E8,1.6766254E9,9.472027E8,2.851111E9,5.151277E9,1.2880128E9,3.067822E9,3.9182234E8,1.1539791E9,2.908969E8,9.158144E7,3.090212E8,7.216855E8,5.2104096E8,5.247085E7,8.510797E7,1.4790513E9,2.2071378E9,2.072535E9,5.9612826E8,2.4417427E8,9.576735E8,6.9283584E8,5.175808E7,1.5789056E8,8.106099E8,1.2647373E8,6.318643E7,9.731251E7,7.010816E6,1.8132992E7,7.361741E7,9.553958E7,1.5738266E8,0E0,3.5054707E8,5.322675E7,2.5530176E7,6.140512E6,1.843968E7,8.243712E7,7.2422195E8,7.3872896E8,1.8500198E8,2.5984205E8,2.8597658E8,1.6070963E8,1.2361997E8,1.464786E8,9.02407E7,5.9144936E7,5.387123E7,1.5199027E8,3.250729E8,5.0133796E7,0E0,0E0,0E0,0E0,0E0,0E0,0E0,0E0,0E0,0E0,0E0,0E0,0E0,0E0,0E0,0E0,0E0,0E0,0E0,0E0,0E0,0E0,0E0,0E0,0E0,0E0,0E0,0E0,0E0,0E0,0E0,0E0,0E0,0E0,0E0,0E0,0E0,0E0,0E0,0E0,0E0,0E0,0E0,0E0,0E0,0E0,0E0,0E0,0E0,0E0,0E0,0E0,0E0,0E0,0E0,0E0,0E0,0E0,0E0,0E0,0E0,0E0],"parents":[2147483647,0,0,1,1,2,2,3,3,4,4,5,5,6,6,7,7,8,8,9,9,10,10,11,11,12,12,13,13,14,14,15,15,16,16,17,17,18,18,19,19,20,20,21,21,22,22,23,23,24,24,25,25,26,26,27,27,28,28,29,29,30,30,31,31,32,32,33,33,34,34,35,35,36,36,37,37,38,38,39,39,40,40,41,41,43,43,44,44,45,45,46,46,47,47,48,48,49,49,50,50,51,51,52,52,53,53,54,54,55,55,56,56,57,57,58,58,59,59,60,60,61,61,62,62],"right_children":[2,4,6,8,10,12,14,16,18,20,22,24,26,28,30,32,34,36,38,40,42,44,46,48,50,52,54,56,58,60,62,64,66,68,70,72,74,76,78,80,82,84,-1,86,88,90,92,94,96,98,100,102,104,106,108,110,112,114,116,118,120,122,124,-1,-1,-1,-1,-1,-1,-1,-1,-1,-1,-1,-1,-1,-1,-1,-1,-1,-1,-1,-1,-1,-1,-1,-1,-1,-1,-1,-1,-1,-1,-1,-1,-1,-1,-1,-1,-1,-1,-1,-1,-1,-1,-1,-1,-1,-1,-1,-1,-1,-1,-1,-1,-1,-1,-1,-1,-1,-1,-1,-1,-1,-1],"split_conditions":[1.588E2,1.6082E4,7E0,7E0,6E0,6.34508E4,2.35E2,8.51514E3,1E1,2.11904E4,1.1E1,3.38496E4,2.6E4,9E0,9E0,6.26E5,5E0,8.4796E3,1.12E3,3E0,4.82116E4,3.8571E4,6.63E5,1E0,5E0,2.35E2,1E0,5.85918E4,1E1,1.67E7,1.2E1,9.98E2,4E0,1.0815E6,1.038372E6,7E1,8E0,1.3E1,1.3E1,8.873E1,1.2337E2,4.0258E4,7.3633813E2,8E0,9E0,3.8571E4,1.2E1,6E0,4E0,4.99316E4,5.4681365E6,1E0,7.8375E6,2.148E3,2.011E2,1E0,2.157E3,1E0,1.5E1,2.979E3,1E0,4.367E3,7.4492264E7,-1.448301E2,-1.1686947E2,-5.4703846E1,-9.472339E1,-2.0803549E1,4.765099E1,-7.0961845E1,-3.7606884E1,-1.5236739E2,-1.1969854E2,-7.75599E1,-1.07829666E2,-1.7693202E2,-2.0090327E2,-1.4940683E2,-1.7680875E2,3.789177E1,2.2763187E2,6.620757E1,1.23752945E2,3.5687878E2,2.408186E2,5.1306183E1,-3.5912003E1,2.5473933E2,1.2490045E2,-1.454023E2,2.4340569E1,-5.459953E1,-9.229665E1,2.0227325E2,-8.211792E0,3.965577E2,2.593516E2,6.38699E2,9.464795E2,2.9732327E2,5.804233E2,1.2201338E3,5.0905484E2,6.777903E2,1.8560801E3,7.047269E2,9.607059E2,5.4912585E2,1.5125208E3,1.9785362E2,-7.210107E1,3.2626968E2,5.0163156E2,1.3864948E2,3.6837662E2,4.7882122E1,-1.2911707E2,2.9093878E2,6.078507E2,1.2409218E3,6.7003723E2,3.2734225E2,7.5694794E2,-1.981819E1,2.0314027E2],"split_indices":[5,1,7,7,7,1,5,1,7,1,7,1,2,7,7,8,7,1,4,7,1,1,9,123,7,5,85,1,7,8,7,4,7,8,8,5,7,7,7,5,5,2,0,7,7,1,7,7,7,1,8,52,8,4,5,37,4,90,7,4,12,4,8,0,0,0,0,0,0,0,0,0,0,0,0,0,0,0,0,0,0,0,0,0,0,0,0,0,0,0,0,0,0,0,0,0,0,0,0,0,0,0,0,0,0,0,0,0,0,0,0,0,0,0,0,0,0,0,0,0,0,0,0,0,0],"split_type":[0,0,0,0,0,0,0,0,0,0,0,0,0,0,0,0,0,0,0,0,0,0,0,0,0,0,0,0,0,0,0,0,0,0,0,0,0,0,0,0,0,0,0,0,0,0,0,0,0,0,0,0,0,0,0,0,0,0,0,0,0,0,0,0,0,0,0,0,0,0,0,0,0,0,0,0,0,0,0,0,0,0,0,0,0,0,0,0,0,0,0,0,0,0,0,0,0,0,0,0,0,0,0,0,0,0,0,0,0,0,0,0,0,0,0,0,0,0,0,0,0,0,0,0,0],"sum_hessian":[9.836E3,8.886E3,9.5E2,7.701E3,1.185E3,4.99E2,4.51E2,4.888E3,2.813E3,5.34E2,6.51E2,3.21E2,1.78E2,3.54E2,9.7E1,1.93E3,2.958E3,1.811E3,1.002E3,3.76E2,1.58E2,5.01E2,1.5E2,9.7E1,2.24E2,7.5E1,1.03E2,1.61E2,1.93E2,3.6E1,6.1E1,8.37E2,1.093E3,1.728E3,1.23E3,6.66E2,1.145E3,3.73E2,6.29E2,7.4E1,3.02E2,1.49E2,9E0,4.62E2,3.9E1,8.9E1,6.1E1,2.9E1,6.8E1,1.22E2,1.02E2,3.6E1,3.9E1,8.4E1,1.9E1,8.1E1,8E1,8.6E1,1.07E2,1.6E1,2E1,4.4E1,1.7E1,2.77E2,5.6E2,3.87E2,7.06E2,8.64E2,8.64E2,4.52E2,7.78E2,3.62E2,3.04E2,4.59E2,6.86E2,2.15E2,1.58E2,5.18E2,1.11E2,6E0,6.8E1,1.34E2,1.68E2,5.5E1,9.4E1,2.5E2,2.12E2,2.1E1,1.8E1,8.7E1,2E0,2.4E1,3.7E1,2.8E1,1E0,2.4E1,4.4E1,8.9E1,3.3E1,4.5E1,5.7E1,3.3E1,3E0,2E0,3.7E1,4.6E1,3.8E1,2E0,1.7E1,7.7E1,4E0,5.8E1,2.2E1,8.2E1,4E0,1.03E2,4E0,5E0,1.1E1,1.4E1,6E0,3.9E1,5E0,1.5E1,2E0],"tree_param":{"num_deleted":"0","num_feature":"125","num_nodes":"125","size_leaf_vector":"1"}},{"base_weights":[4.177254E0,-1.0656003E3,1.0274268E4,-1.4741475E3,1.567808E3,2.0859639E4,6.6954893E3,-8.9993756E2,-2.4870276E3,3.5646492E3,-4.2498993E2,1.9456826E4,6.1195303E3,1.0149775E4,3.7035767E3,-1.9043513E3,-2.3960107E2,-2.1122805E3,-3.1609558E3,2.4009133E3,5.197337E3,9.754751E2,-1.3809801E3,1.5669167E4,3.328279E4,8.0525146E3,1.9173604E4,3.2694565E3,4.3042316E4,-2.4126912E3,-1.5517911E3,2.71336E2,-9.378808E2,-2.4089182E3,-1.518452E3,-3.6294822E3,-2.9436233E3,4.2570225E3,1.9066593E3,8.430554E3,4.764181E3,1.8954659E2,1.8410725E3,-2.0975925E3,-5.9800964E2,1.1456758E4,2.0134332E4,3.4161934E4,4.2076447E2,5.7727324E3,1.0936297E4,1.1699262E4,2.2898268E4,1.8310492E3,4.7371587E3,2.4784333E3,5.865818E2,-1.3616576E2,-1.098421E2,-5.5191536E1,-9.029605E1,-2.0289911E1,4.5792206E1,-6.565566E1,-3.539926E1,-1.3439378E2,-1.05148476E2,-8.193614E1,-4.176143E1,-1.6580632E2,-1.911121E2,-1.4218996E2,-1.6927092E2,2.3784476E2,1.23268105E2,1.1647234E2,6.078384E1,3.3707065E2,5.9053656E2,2.9186734E2,2.1193086E2,-3.2353664E1,3.7243153E1,8.7796745E1,2.9079745E2,-1.09928665E2,9.9881065E1,-8.199321E0,-7.241313E1,2.768045E2,6.32285E2,1.1497758E3,8.375262E2,1.728351E3,3.8819632E2,3.246985E2,3.9802746E1,6.78643E2,4.7294333E2,6.932631E2,3.0878003E2,1.2483448E3,7.681474E2,1.3643181E2,1.8368402E1,2.7414914E2,-9.788481E0],"categories":[],"categories_nodes":[],"categories_segments":[],"categories_sizes":[],"default_left":[0,0,0,0,0,0,0,0,0,0,0,0,0,0,0,0,0,0,0,0,0,0,0,0,0,0,0,0,0,0,0,0,0,0,0,0,0,0,0,0,0,0,0,0,0,0,0,0,0,0,0,0,0,0,0,0,0,0,0,0,0,0,0,0,0,0,0,0,0,0,0,0,0,0,0,0,0,0,0,0,0,0,0,0,0,0,0,0,0,0,0,0,0,0,0,0,0,0,0,0,0,0,0,0,0,0,0],"id":8,"left_children":[1,3,5,7,9,11,13,15,17,19,21,23,-1,25,27,29,31,33,35,37,39,41,43,45,47,49,51,53,55,57,59,61,63,65,67,69,71,73,75,77,79,81,83,85,87,89,91,93,-1,95,97,99,101,103,105,-1,-1,-1,-1,-1,-1,-1,-1,-1,-1,-1,-1,-1,-1,-1,-1,-1,-1,-1,-1,-1,-1,-1,-1,-1,-1,-1,-1,-1,-1,-1,-1,-1,-1,-1,-1,-1,-1,-1,-1,-1,-1,-1,-1,-1,-1,-1,-1,-1,-1,-1,-1],"loss_changes":[1.08076245E11,9.587251E9,3.5015475E10,4.4836864E9,4.7647386E9,3.0947033E10,7.145179E9,3.265391E9,6.9794406E8,1.1237315E9,8.046456E8,1.162788E10,0E0,5.9395584E9,6.2463493E9,3.4627328E8,1.06059584E9,3.1271117E8,9.063322E7,3.1388698E8,3.0715546E8,1.6564366E8,1.9905344E8,3.2301998E9,7.837573E8,1.6659343E9,1.4024704E9,7.7456435E8,2.3585587E8,4.752179E7,1.2960563E8,7.497022E8,1.0741811E8,9.642189E7,4.801664E7,6.109952E6,2.0581888E7,5.365133E7,7.867488E7,8.024755E7,9.990554E7,6.0413932E7,2.9043296E7,8.130982E7,6.323558E7,6.128077E8,4.6680064E8,2.3422157E8,0E0,5.2964557E8,3.1957914E8,1.7758746E8,2.243584E8,2.473022E8,6.74348E8,0E0,0E0,0E0,0E0,0E0,0E0,0E0,0E0,0E0,0E0,0E0,0E0,0E0,0E0,0E0,0E0,0E0,0E0,0E0,0E0,0E0,0E0,0E0,0E0,0E0,0E0,0E0,0E0,0E0,0E0,0E0,0E0,0E0,0E0,0E0,0E0,0E0,0E0,0E0,0E0,0E0,0E0,0E0,0E0,0E0,0E0,0E0,0E0,0E0,0E0,0E0,0E0],"parents":[2147483647,0,0,1,1,2,2,3,3,4,4,5,5,6,6,7,7,8,8,9,9,10,10,11,11,13,13,14,14,15,15,16,16,17,17,18,18,19,19,20,20,21,21,22,22,23,23,24,24,25,25,26,26,27,27,28,28,29,29,30,30,31,31,32,32,33,33,34,34,35,35,36,36,37,37,38,38,39,39,40,40,41,41,42,42,43,43,44,44,45,45,46,46,47,47,49,49,50,50,51,51,52,52,53,53,54,54],"right_children":[2,4,6,8,10,12,14,16,18,20,22,24,-1,26,28,30,32,34,36,38,40,42,44,46,48,50,52,54,56,58,60,62,64,66,68,70,72,74,76,78,80,82,84,86,88,90,92,94,-1,96,98,100,102,104,106,-1,-1,-1,-1,-1,-1,-1,-1,-1,-1,-1,-1,-1,-1,-1,-1,-1,-1,-1,-1,-1,-1,-1,-1,-1,-1,-1,-1,-1,-1,-1,-1,-1,-1,-1,-1,-1,-1,-1,-1,-1,-1,-1,-1,-1,-1,-1,-1,-1,-1,-1,-1],"split_conditions":[3.61716E4,1.65292E4,5E0,7E0,6E0,3.855E3,8E0,8.51514E3,1E1,2.04594E4,8E0,6.59878E4,6.1195303E3,8.22246E4,5.998E3,6.205E5,5E0,7.9702734E3,4.773E3,3E0,1.7E4,2.0131447E4,6.63E5,4.99316E4,1E0,4.57778E4,2.487E3,5.599632E4,3.015E4,3.1648E3,4E0,1.0815E6,1.038372E6,2.83E5,6E0,1.2E1,1.3E1,1E0,5E0,2.0081E4,4E0,1.52E1,2.495E3,2.967E3,1.1E1,5E3,4E0,1.796025E4,4.2076447E2,1E0,6E0,7E0,1.201845E6,1E1,1.2E1,2.4784333E3,5.865818E2,-1.3616576E2,-1.098421E2,-5.5191536E1,-9.029605E1,-2.0289911E1,4.5792206E1,-6.565566E1,-3.539926E1,-1.3439378E2,-1.05148476E2,-8.193614E1,-4.176143E1,-1.6580632E2,-1.911121E2,-1.4218996E2,-1.6927092E2,2.3784476E2,1.23268105E2,1.1647234E2,6.078384E1,3.3707065E2,5.9053656E2,2.9186734E2,2.1193086E2,-3.2353664E1,3.7243153E1,8.7796745E1,2.9079745E2,-1.09928665E2,9.9881065E1,-8.199321E0,-7.241313E1,2.768045E2,6.32285E2,1.1497758E3,8.375262E2,1.728351E3,3.8819632E2,3.246985E2,3.9802746E1,6.78643E2,4.7294333E2,6.932631E2,3.0878003E2,1.2483448E3,7.681474E2,1.3643181E2,1.8368402E1,2.7414914E2,-9.788481E0],"split_indices":[1,1,7,7,7,4,7,1,7,1,7,0,0,1,4,8,7,0,0,7,2,1,9,1,52,0,4,0,2,0,7,8,8,9,6,7,7,60,7,0,7,3,4,4,7,9,7,10,0,37,7,7,0,7,7,0,0,0,0,0,0,0,0,0,0,0,0,0,0,0,0,0,0,0,0,0,0,0,0,0,0,0,0,0,0,0,0,0,0,0,0,0,0,0,0,0,0,0,0,0,0,0,0,0,0,0,0],"split_type":[0,0,0,0,0,0,0,0,0,0,0,0,0,0,0,0,0,0,0,0,0,0,0,0,0,0,0,0,0,0,0,0,0,0,0,0,0,0,0,0,0,0,0,0,0,0,0,0,0,0,0,0,0,0,0,0,0,0,0,0,0,0,0,0,0,0,0,0,0,0,0,0,0,0,0,0,0,0,0,0,0,0,0,0,0,0,0,0,0,0,0,0,0,0,0,0,0,0,0,0,0,0,0,0,0,0,0],"sum_hessian":[9.835E3,8.908E3,9.27E2,7.712E3,1.196E3,2.33E2,6.94E2,4.923E3,2.789E3,5.97E2,5.99E2,2.31E2,2E0,3.21E2,3.73E2,1.952E3,2.971E3,1.795E3,9.94E2,3.5E2,2.47E2,2.43E2,3.56E2,1.83E2,4.8E1,2.62E2,5.9E1,3.7E2,3E0,7.97E2,1.155E3,1.716E3,1.255E3,1.195E3,6E2,3.1E2,6.84E2,7.2E1,2.78E2,2.7E1,2.2E2,1.28E2,1.15E2,1.85E2,1.71E2,9.6E1,8.7E1,4.6E1,2E0,1.48E2,1.14E2,2.1E1,3.8E1,1.88E2,1.82E2,2E0,1E0,3.22E2,4.75E2,4.2E2,7.35E2,8.37E2,8.79E2,4.75E2,7.8E2,6.21E2,5.74E2,5.09E2,9.1E1,1.25E2,1.85E2,5.64E2,1.2E2,5.5E1,1.7E1,1.71E2,1.07E2,2E1,7E0,6.9E1,1.51E2,5.1E1,7.7E1,1.14E2,1E0,1.81E2,4E0,1.14E2,5.7E1,1.7E1,7.9E1,4.4E1,4.3E1,4.5E1,1E0,1.29E2,1.9E1,3.8E1,7.6E1,1.4E1,7E0,2.8E1,1E1,1.16E2,7.2E1,1.58E2,2.4E1],"tree_param":{"num_deleted":"0","num_feature":"125","num_nodes":"107","size_leaf_vector":"1"}},{"base_weights":[1.4118494E1,-1.0195866E3,9.920444E3,-1.9244304E3,2.5999392E1,9.632344E3,6.895919E3,-1.5368141E3,-2.7917478E3,1.0793527E3,-1.0918148E3,2.0008207E4,7.246332E3,-2.1150764E3,-1.0253113E3,-2.4210342E3,-3.0994211E3,4.8102512E2,4.327773E3,-1.5479089E3,1.2672251E2,1.1511827E4,2.7987572E4,1.0139654E4,3.2221917E3,-2.4346362E3,-1.8307817E3,-6.3965247E2,-1.430181E3,-2.8029937E3,-2.187913E3,-3.4200862E3,-2.8871848E3,1.287788E2,1.5598871E3,4.1106533E3,6.8640234E2,-1.0450156E3,-2.1457002E3,9.20736E2,-1.5959156E3,9.017995E3,1.6016539E4,2.5169752E4,5.3019566E4,8.399776E3,1.9457525E4,2.8396448E3,1.3571026E4,-1.0362237E2,-1.3058995E2,-7.799683E1,-1.0415624E2,-4.227732E1,-6.8135986E0,-7.593749E1,-3.936502E1,-1.4060338E2,-1.358949E1,-1.2096236E2,-9.516455E1,-1.551306E2,-1.8051402E2,-1.4475343E2,-7.7487236E1,3.1736444E1,-1.2225036E1,1.12177734E2,5.252079E1,1.6534251E2,2.662565E2,-6.2035976E1,-1.8503357E1,-9.674676E1,-1.4323038E2,3.1926615E1,1.535818E2,-8.781908E1,1.2187022E2,4.9519067E2,1.5966014E2,9.41103E2,5.833095E2,1.3412426E3,6.099338E2,2.9213682E3,3.791251E2,2.7902206E2,4.8905722E2,6.7082745E2,1.180276E3,1.3484744E2,1.1590477E3,3.709744E2,9.7344885E2],"categories":[],"categories_nodes":[],"categories_segments":[],"categories_sizes":[],"default_left":[0,0,0,0,0,0,0,0,0,0,0,0,0,0,0,0,0,0,0,0,0,0,0,0,0,0,0,0,0,0,0,0,0,0,0,0,0,0,0,0,0,0,0,0,0,0,0,0,0,0,0,0,0,0,0,0,0,0,0,0,0,0,0,0,0,0,0,0,0,0,0,0,0,0,0,0,0,0,0,0,0,0,0,0,0,0,0,0,0,0,0,0,0,0,0],"id":9,"left_children":[1,3,5,7,9,11,-1,13,15,17,19,21,23,25,27,29,31,33,35,37,39,41,43,45,47,49,51,53,55,57,59,61,63,65,67,69,-1,71,73,75,77,79,81,83,85,87,89,91,93,-1,-1,-1,-1,-1,-1,-1,-1,-1,-1,-1,-1,-1,-1,-1,-1,-1,-1,-1,-1,-1,-1,-1,-1,-1,-1,-1,-1,-1,-1,-1,-1,-1,-1,-1,-1,-1,-1,-1,-1,-1,-1,-1,-1,-1,-1],"loss_changes":[1.00138975E11,8.377694E9,3.2745136E10,1.5915868E9,4.839334E9,2.270566E10,0E0,9.688868E8,1.5959142E8,4.1106168E9,1.1083968E9,1.1338678E10,8.722964E9,1.3545062E8,2.7139597E8,5.343667E7,4.436736E7,6.7928416E8,6.150523E8,4.339648E8,7.455515E8,8.10453E8,4.872651E9,6.9211873E9,1.2124803E9,4.0915456E7,5.2725504E7,9.264525E7,4.720256E7,4.977664E6,2.3049344E7,7.63776E6,6.3744E5,2.5492842E8,1.5089933E8,2.9770342E8,0E0,1.038919E8,9.476378E7,2.2444666E8,1.1560115E8,2.6247834E8,1.3436365E8,1.4117151E9,1.52269E9,1.3863956E9,1.3872353E9,8.2568474E8,2.546464E8,0E0,0E0,0E0,0E0,0E0,0E0,0E0,0E0,0E0,0E0,0E0,0E0,0E0,0E0,0E0,0E0,0E0,0E0,0E0,0E0,0E0,0E0,0E0,0E0,0E0,0E0,0E0,0E0,0E0,0E0,0E0,0E0,0E0,0E0,0E0,0E0,0E0,0E0,0E0,0E0,0E0,0E0,0E0,0E0,0E0,0E0],"parents":[2147483647,0,0,1,1,2,2,3,3,4,4,5,5,7,7,8,8,9,9,10,10,11,11,12,12,13,13,14,14,15,15,16,16,17,17,18,18,19,19,20,20,21,21,22,22,23,23,24,24,25,25,26,26,27,27,28,28,29,29,30,30,31,31,32,32,33,33,34,34,35,35,37,37,38,38,39,39,40,40,41,41,42,42,43,43,44,44,45,45,46,46,47,47,48,48],"right_children":[2,4,6,8,10,12,-1,14,16,18,20,22,24,26,28,30,32,34,36,38,40,42,44,46,48,50,52,54,56,58,60,62,64,66,68,70,-1,72,74,76,78,80,82,84,86,88,90,92,94,-1,-1,-1,-1,-1,-1,-1,-1,-1,-1,-1,-1,-1,-1,-1,-1,-1,-1,-1,-1,-1,-1,-1,-1,-1,-1,-1,-1,-1,-1,-1,-1,-1,-1,-1,-1,-1,-1,-1,-1,-1,-1,-1,-1,-1,-1],"split_conditions":[1.6762E2,8.85E1,1E0,8E0,6E0,2.6765E4,6.895919E3,7.24E5,1E1,1.303E2,1.2951852E4,6.1312266E4,8E0,4.4978E3,5E0,1.49E5,4.773E3,1.176E2,4.35246E4,8E0,1E1,5.6175E6,2.2875E6,2.35E2,1E0,4E0,5E0,1.248E3,7.7406743E3,8.0668E3,1.248E3,1.2E1,5.468889E5,4E0,4E0,1.7114E4,6.8640234E2,1.173E2,1.1E1,4.217E6,1E0,6E0,5E0,7E0,2.5E4,1.745E2,8.8445E6,5.998E3,3.612158E5,-1.0362237E2,-1.3058995E2,-7.799683E1,-1.0415624E2,-4.227732E1,-6.8135986E0,-7.593749E1,-3.936502E1,-1.4060338E2,-1.358949E1,-1.2096236E2,-9.516455E1,-1.551306E2,-1.8051402E2,-1.4475343E2,-7.7487236E1,3.1736444E1,-1.2225036E1,1.12177734E2,5.252079E1,1.6534251E2,2.662565E2,-6.2035976E1,-1.8503357E1,-9.674676E1,-1.4323038E2,3.1926615E1,1.535818E2,-8.781908E1,1.2187022E2,4.9519067E2,1.5966014E2,9.41103E2,5.833095E2,1.3412426E3,6.099338E2,2.9213682E3,3.791251E2,2.7902206E2,4.8905722E2,6.7082745E2,1.180276E3,1.3484744E2,1.1590477E3,3.709744E2,9.7344885E2],"split_indices":[5,5,15,7,7,2,0,8,7,5,0,0,7,0,7,9,0,5,0,7,7,8,9,5,90,7,7,4,0,0,4,7,9,7,7,0,0,5,7,8,11,7,7,7,2,5,8,4,9,0,0,0,0,0,0,0,0,0,0,0,0,0,0,0,0,0,0,0,0,0,0,0,0,0,0,0,0,0,0,0,0,0,0,0,0,0,0,0,0,0,0,0,0,0,0],"split_type":[0,0,0,0,0,0,0,0,0,0,0,0,0,0,0,0,0,0,0,0,0,0,0,0,0,0,0,0,0,0,0,0,0,0,0,0,0,0,0,0,0,0,0,0,0,0,0,0,0,0,0,0,0,0,0,0,0,0,0,0,0,0,0,0,0,0,0,0,0,0,0,0,0,0,0,0,0,0,0,0,0,0,0,0,0,0,0,0,0,0,0,0,0,0,0],"sum_hessian":[9.777E3,8.854E3,9.23E2,4.746E3,4.108E3,9.22E2,1E0,3.282E3,1.464E3,2.115E3,1.993E3,1.71E2,7.51E2,1.539E3,1.743E3,6.68E2,7.96E2,1.787E3,3.28E2,1.45E3,5.43E2,8.4E1,8.7E1,4.36E2,3.15E2,7.21E2,8.18E2,8.94E2,8.49E2,2.49E2,4.19E2,3.11E2,4.85E2,1.348E3,4.39E2,3.22E2,6E0,7.89E2,6.61E2,3.72E2,1.71E2,5.6E1,2.8E1,8E1,7E0,3.69E2,6.7E1,3.05E2,1E1,2.41E2,4.8E2,3.98E2,4.2E2,6.34E2,2.6E2,7.45E2,1.04E2,2.48E2,1E0,2.27E2,1.92E2,1.23E2,1.88E2,4.81E2,4E0,5.72E2,7.76E2,1.86E2,2.53E2,1.96E2,1.26E2,6.11E2,1.78E2,5.14E2,1.47E2,3.3E2,4.2E1,1.65E2,6E0,4.8E1,8E0,1.5E1,1.3E1,7E1,1E1,6E0,1E0,1.23E2,2.46E2,2.9E1,3.8E1,3.04E2,1E0,6E0,4E0],"tree_param":{"num_deleted":"0","num_feature":"125","num_nodes":"95","size_leaf_vector":"1"}},{"base_weights":[1.5195194E1,-7.998492E2,1.1002551E4,-1.184004E3,3.3505613E3,1.0619285E4,6.723521E3,-2.1240208E3,-5.894363E2,5.3941094E3,2.5543142E3,1.6284685E4,6.687946E3,-2.4809902E3,-1.729107E3,4.1975543E2,-8.741466E2,4.5361016E3,1.14567E4,8.828534E2,3.4196003E3,1.1562178E4,2.6356742E4,5.632807E3,1.1245883E4,-2.9321042E3,-2.2518242E3,-1.6238154E3,-2.563746E3,-7.6337296E1,1.962829E3,-1.0895051E3,1.5452885E2,3.5746685E3,5.633261E3,1.178009E4,8.429925E1,-2.5258333E2,1.940558E3,3.6568376E3,-9.992578E1,1.7851158E4,1.01666455E4,2.3489086E4,3.9631723E4,2.8101558E3,7.0572583E3,1.1856188E4,6.1543066E3,-1.6422324E2,-1.350128E2,-1.27835686E2,-9.9511314E1,-1.1145811E2,-7.262499E1,-1.3108853E2,-9.207008E1,-2.0353865E1,2.8523924E1,7.756127E1,2.7544797E2,-6.4344635E1,-3.0379124E1,-4.985725E1,2.7882517E1,1.8386546E2,6.42659E1,3.867131E2,2.2247058E2,6.632595E2,4.1129596E2,-2.3013588E1,4.2904064E1,1.0184312E2,-4.279417E1,1.7703859E2,4.8702512E2,5.6575165E2,1.01004974E3,4.0907E2,6.2280396E2,1.1979559E3,2.1893033E2,2.0437274E3,5.868755E2,9.236802E1,2.382332E2,4.3436774E2,1.8382037E2,5.293537E2,8.05913E2,3.2416046E2,7.985459E1],"categories":[],"categories_nodes":[],"categories_segments":[],"categories_sizes":[],"default_left":[0,0,0,0,0,0,0,0,0,0,0,0,0,0,0,0,0,0,0,0,0,0,0,0,0,0,0,0,0,0,0,0,0,0,0,0,0,0,0,0,0,0,0,0,0,0,0,0,0,0,0,0,0,0,0,0,0,0,0,0,0,0,0,0,0,0,0,0,0,0,0,0,0,0,0,0,0,0,0,0,0,0,0,0,0,0,0,0,0,0,0,0,0],"id":10,"left_children":[1,3,5,7,9,11,-1,13,15,17,19,21,23,25,27,29,31,33,35,37,39,41,43,45,47,49,51,53,55,57,59,61,63,65,67,69,-1,71,73,75,-1,77,79,81,83,85,87,89,91,-1,-1,-1,-1,-1,-1,-1,-1,-1,-1,-1,-1,-1,-1,-1,-1,-1,-1,-1,-1,-1,-1,-1,-1,-1,-1,-1,-1,-1,-1,-1,-1,-1,-1,-1,-1,-1,-1,-1,-1,-1,-1,-1,-1],"loss_changes":[8.740243E10,1.4490691E10,3.0466433E10,4.6471485E9,1.2391414E9,1.4880555E10,0E0,4.4992307E8,1.4645871E9,1.06640794E9,8.011195E8,1.2775735E10,1.8555474E9,1.6811008E8,1.3055744E8,8.5904934E8,8.8076595E8,1.802834E8,6.229197E7,2.2987285E8,4.7775693E8,1.4772695E9,2.3810048E9,1.290925E9,1.5698227E8,3.7369856E7,8.463974E7,1.3821594E8,2.2976E6,1.8207088E8,3.8992506E8,3.1189555E8,3.204343E8,1.971136E7,1.819794E8,2.283904E7,0E0,2.1847462E7,2.840496E7,2.133545E8,0E0,2.7826586E8,6.1167E8,5.598044E8,5.5808E6,2.0007686E8,1.1584625E9,1.8094387E8,4.634528E6,0E0,0E0,0E0,0E0,0E0,0E0,0E0,0E0,0E0,0E0,0E0,0E0,0E0,0E0,0E0,0E0,0E0,0E0,0E0,0E0,0E0,0E0,0E0,0E0,0E0,0E0,0E0,0E0,0E0,0E0,0E0,0E0,0E0,0E0,0E0,0E0,0E0,0E0,0E0,0E0,0E0,0E0,0E0,0E0],"parents":[2147483647,0,0,1,1,2,2,3,3,4,4,5,5,7,7,8,8,9,9,10,10,11,11,12,12,13,13,14,14,15,15,16,16,17,17,18,18,19,19,20,20,21,21,22,22,23,23,24,24,25,25,26,26,27,27,28,28,29,29,30,30,31,31,32,32,33,33,34,34,35,35,37,37,38,38,39,39,41,41,42,42,43,43,44,44,45,45,46,46,47,47,48,48],"right_children":[2,4,6,8,10,12,-1,14,16,18,20,22,24,26,28,30,32,34,36,38,40,42,44,46,48,50,52,54,56,58,60,62,64,66,68,70,-1,72,74,76,-1,78,80,82,84,86,88,90,92,-1,-1,-1,-1,-1,-1,-1,-1,-1,-1,-1,-1,-1,-1,-1,-1,-1,-1,-1,-1,-1,-1,-1,-1,-1,-1,-1,-1,-1,-1,-1,-1,-1,-1,-1,-1,-1,-1,-1,-1,-1,-1,-1,-1],"split_conditions":[1.745E2,1.4E2,5.0224E5,8.51514E3,4.0258E4,4.2E4,6.723521E3,6.81E1,2.9104E4,4.42728E4,2.1758E4,2.35E2,6E0,2.03E1,1E0,1.134E2,1.5738E4,2.4861428E6,1E0,1.52E1,1E0,1.2909E4,1.6159938E5,1.877E2,1.15777E5,6.7E1,5.2718E3,1.87E1,6.073461E3,7.7406743E3,1.79826E4,2.274E1,1.299E1,1.79224E4,2.6E4,3.24E4,8.429925E1,2.04594E4,1.677E4,1E0,-9.992578E1,4.3040355E4,5.8615E6,1E0,4.128E4,1.827E1,1E0,1E0,2.4808E2,-1.6422324E2,-1.350128E2,-1.27835686E2,-9.9511314E1,-1.1145811E2,-7.262499E1,-1.3108853E2,-9.207008E1,-2.0353865E1,2.8523924E1,7.756127E1,2.7544797E2,-6.4344635E1,-3.0379124E1,-4.985725E1,2.7882517E1,1.8386546E2,6.42659E1,3.867131E2,2.2247058E2,6.632595E2,4.1129596E2,-2.3013588E1,4.2904064E1,1.0184312E2,-4.279417E1,1.7703859E2,4.8702512E2,5.6575165E2,1.01004974E3,4.0907E2,6.2280396E2,1.1979559E3,2.1893033E2,2.0437274E3,5.868755E2,9.236802E1,2.382332E2,4.3436774E2,1.8382037E2,5.293537E2,8.05913E2,3.2416046E2,7.985459E1],"split_indices":[5,5,1,1,2,2,0,5,2,0,1,5,6,3,113,5,1,8,43,3,96,2,1,5,2,5,1,3,0,0,1,3,3,0,2,2,0,1,0,24,0,0,8,62,2,3,31,31,5,0,0,0,0,0,0,0,0,0,0,0,0,0,0,0,0,0,0,0,0,0,0,0,0,0,0,0,0,0,0,0,0,0,0,0,0,0,0,0,0,0,0,0,0],"split_type":[0,0,0,0,0,0,0,0,0,0,0,0,0,0,0,0,0,0,0,0,0,0,0,0,0,0,0,0,0,0,0,0,0,0,0,0,0,0,0,0,0,0,0,0,0,0,0,0,0,0,0,0,0,0,0,0,0,0,0,0,0,0,0,0,0,0,0,0,0,0,0,0,0,0,0,0,0,0,0,0,0,0,0,0,0,0,0,0,0,0,0,0,0],"sum_hessian":[9.758E3,9.085E3,6.73E2,8.316E3,7.69E2,6.72E2,1E0,3.221E3,5.095E3,2.14E2,5.55E2,2.74E2,3.98E2,1.689E3,1.532E3,1.121E3,3.974E3,1.89E2,2.5E1,1.9E2,3.65E2,1.88E2,8.6E1,3.25E2,7.3E1,5.65E2,1.124E3,1.363E3,1.69E2,8.49E2,2.72E2,3.286E3,6.88E2,1.03E2,8.6E1,2.4E1,1E0,9.2E1,9.8E1,3.5E2,1.5E1,3.2E1,1.56E2,7.3E1,1.3E1,1.1E2,2.15E2,6.4E1,9E0,2.19E2,3.46E2,5.15E2,6.09E2,2.98E2,1.065E3,1.54E2,1.5E1,5.62E2,2.87E2,2.45E2,2.7E1,2.33E3,9.56E2,1.78E2,5.1E2,9.8E1,5E0,2.9E1,5.7E1,1.5E1,9E0,7.8E1,1.4E1,9.5E1,3E0,3.45E2,5E0,1E1,2.2E1,8.6E1,7E1,7.1E1,2E0,1.2E1,1E0,7.5E1,3.5E1,1.44E2,7.1E1,5.2E1,1.2E1,8E0,1E0],"tree_param":{"num_deleted":"0","num_feature":"125","num_nodes":"93","size_leaf_vector":"1"}},{"base_weights":[3.216353E1,-9.271006E2,9.06973E3,-1.2711418E3,1.2831385E3,8.798694E3,6.555433E3,-6.2052673E2,-1.9644342E3,2.6006077E3,-6.628015E2,1.2842389E4,4.3071357E3,-1.2630381E3,3.3449997E2,-1.5866195E3,-2.5728447E3,1.7694396E3,4.266025E3,-9.435003E2,2.7234968E3,8.0052734E3,1.9551703E4,3.9414204E3,3.5628664E4,-1.8767439E3,-8.37698E2,9.0425635E2,-1.2402223E2,-2.2662805E3,-1.3722091E3,-2.372907E3,-3.0780432E3,2.6248481E3,8.030245E2,4.988086E3,2.3008184E3,-4.0621185E2,-2.0833235E3,3.6592676E3,-5.9437476E2,4.2110576E3,9.327703E3,1.5342537E4,2.455489E4,2.899817E3,7.744558E3,2.2596877E3,7.093677E2,-1.107924E2,-8.141549E1,-2.435224E1,-5.5036846E1,5.846681E1,-1.8084293E1,2.999993E0,-4.3714283E1,-1.3130771E2,-1.03313736E2,-8.076955E1,-5.375834E1,-1.3225291E2,-1.0370988E2,-1.446752E2,-1.6998766E2,1.9452983E2,1.0807997E2,1.8224882E0,5.115475E1,2.118815E2,3.891534E2,2.459439E0,1.2858592E2,-6.543667E1,4.658419E0,-1.2684539E2,-6.121217E1,4.0569004E1,1.9200856E2,4.1768074E1,-7.242349E1,-4.376696E1,2.1801785E2,5.7035834E2,3.245685E2,9.2559906E2,5.380188E2,1.4987778E3,9.3635565E2,2.175146E2,7.2467415E1,6.1683026E2,2.3408109E2],"categories":[],"categories_nodes":[],"categories_segments":[],"categories_sizes":[],"default_left":[0,0,0,0,0,0,0,0,0,0,0,0,0,0,0,0,0,0,0,0,0,0,0,0,0,0,0,0,0,0,0,0,0,0,0,0,0,0,0,0,0,0,0,0,0,0,0,0,0,0,0,0,0,0,0,0,0,0,0,0,0,0,0,0,0,0,0,0,0,0,0,0,0,0,0,0,0,0,0,0,0,0,0,0,0,0,0,0,0,0,0,0,0],"id":11,"left_children":[1,3,5,7,9,11,-1,13,15,17,19,21,23,25,27,29,31,33,35,37,39,41,43,45,47,49,51,53,55,57,59,61,63,65,67,69,71,73,75,77,79,81,83,85,87,89,91,-1,-1,-1,-1,-1,-1,-1,-1,-1,-1,-1,-1,-1,-1,-1,-1,-1,-1,-1,-1,-1,-1,-1,-1,-1,-1,-1,-1,-1,-1,-1,-1,-1,-1,-1,-1,-1,-1,-1,-1,-1,-1,-1,-1,-1,-1],"loss_changes":[8.44745E10,6.7001144E9,2.9773357E10,3.4372598E9,3.0448548E9,1.6908452E10,0E0,2.4143862E9,8.441252E8,9.7249434E8,4.5882394E8,1.5778251E10,4.945489E9,6.123786E8,4.1366445E8,3.2900147E8,1.3532058E8,3.8973837E8,3.219881E8,2.710655E8,1.1705133E8,1.4007685E9,3.9404093E9,1.7205412E9,3.842601E8,7.74359E7,1.2776346E8,2.373394E8,1.2127356E8,3.3801216E7,1.2359142E8,7.710822E7,1.3732096E7,1.3876544E8,3.775165E7,3.2569216E8,3.952141E7,1.3668445E8,5.2226624E7,1.1824736E7,1.2200172E7,6.1530624E7,1.1763384E9,1.4564147E9,2.344964E9,7.237376E8,1.2643686E9,0E0,0E0,0E0,0E0,0E0,0E0,0E0,0E0,0E0,0E0,0E0,0E0,0E0,0E0,0E0,0E0,0E0,0E0,0E0,0E0,0E0,0E0,0E0,0E0,0E0,0E0,0E0,0E0,0E0,0E0,0E0,0E0,0E0,0E0,0E0,0E0,0E0,0E0,0E0,0E0,0E0,0E0,0E0,0E0,0E0,0E0],"parents":[2147483647,0,0,1,1,2,2,3,3,4,4,5,5,7,7,8,8,9,9,10,10,11,11,12,12,13,13,14,14,15,15,16,16,17,17,18,18,19,19,20,20,21,21,22,22,23,23,24,24,25,25,26,26,27,27,28,28,29,29,30,30,31,31,32,32,33,33,34,34,35,35,36,36,37,37,38,38,39,39,40,40,41,41,42,42,43,43,44,44,45,45,46,46],"right_children":[2,4,6,8,10,12,-1,14,16,18,20,22,24,26,28,30,32,34,36,38,40,42,44,46,48,50,52,54,56,58,60,62,64,66,68,70,72,74,76,78,80,82,84,86,88,90,92,-1,-1,-1,-1,-1,-1,-1,-1,-1,-1,-1,-1,-1,-1,-1,-1,-1,-1,-1,-1,-1,-1,-1,-1,-1,-1,-1,-1,-1,-1,-1,-1,-1,-1,-1,-1,-1,-1,-1,-1,-1,-1,-1,-1,-1,-1],"split_conditions":[1.6762E2,1.6082E4,5.0224E5,6E0,7E0,7E0,6.555433E3,1.022E6,9E0,2.11904E4,4.10478E4,6.813E6,5.461E3,7.045E5,4E0,7.19E5,1.2E1,5E0,6E0,1.1E1,1.1E1,3.29122E4,2.35E2,2.35E2,3.015E4,3.5088E3,4E0,1E0,1E0,4.4032E3,7.9702734E3,1.248E3,1.4E1,3E0,1.537E1,2.0081E4,1.799E3,2.01068E4,1E0,1E0,2.2011428E3,1.4018E4,5E0,5E0,5E0,9E0,9E0,2.2596877E3,7.093677E2,-1.107924E2,-8.141549E1,-2.435224E1,-5.5036846E1,5.846681E1,-1.8084293E1,2.999993E0,-4.3714283E1,-1.3130771E2,-1.03313736E2,-8.076955E1,-5.375834E1,-1.3225291E2,-1.0370988E2,-1.446752E2,-1.6998766E2,1.9452983E2,1.0807997E2,1.8224882E0,5.115475E1,2.118815E2,3.891534E2,2.459439E0,1.2858592E2,-6.543667E1,4.658419E0,-1.2684539E2,-6.121217E1,4.0569004E1,1.9200856E2,4.1768074E1,-7.242349E1,-4.376696E1,2.1801785E2,5.7035834E2,3.245685E2,9.2559906E2,5.380188E2,1.4987778E3,9.3635565E2,2.175146E2,7.2467415E1,6.1683026E2,2.3408109E2],"split_indices":[5,1,1,7,7,7,0,8,7,1,1,8,4,8,7,8,7,7,7,7,7,1,5,5,2,0,7,114,114,0,0,4,7,7,3,0,4,1,77,115,10,0,7,7,7,7,7,0,0,0,0,0,0,0,0,0,0,0,0,0,0,0,0,0,0,0,0,0,0,0,0,0,0,0,0,0,0,0,0,0,0,0,0,0,0,0,0,0,0,0,0,0,0],"split_type":[0,0,0,0,0,0,0,0,0,0,0,0,0,0,0,0,0,0,0,0,0,0,0,0,0,0,0,0,0,0,0,0,0,0,0,0,0,0,0,0,0,0,0,0,0,0,0,0,0,0,0,0,0,0,0,0,0,0,0,0,0,0,0,0,0,0,0,0,0,0,0,0,0,0,0,0,0,0,0,0,0,0,0,0,0,0,0,0,0,0,0,0,0],"sum_hessian":[9.742E3,8.808E3,9.34E2,7.622E3,1.186E3,9.33E2,1E0,3.933E3,3.689E3,7.07E2,4.79E2,4.9E2,4.43E2,2.351E3,1.582E3,2.278E3,1.411E3,4.73E2,2.34E2,4.43E2,3.6E1,2.86E2,2.04E2,4.39E2,4E0,9.61E2,1.39E3,7.05E2,8.77E2,5.44E2,1.734E3,1.015E3,3.96E2,2.5E2,2.23E2,1.7E2,6.4E1,3.02E2,1.41E2,2.8E1,8E0,7.5E1,2.11E2,1.13E2,9.1E1,3.46E2,9.3E1,2E0,2E0,4.03E2,5.58E2,5.97E2,7.93E2,5.83E2,1.22E2,7.05E2,1.72E2,1.9E2,3.54E2,9.51E2,7.83E2,5.27E2,4.88E2,2.58E2,1.38E2,6.5E1,1.85E2,5E1,1.73E2,1.36E2,3.4E1,7E0,5.7E1,1.07E2,1.95E2,9.1E1,5E1,2E0,2.6E1,3E0,5E0,2E0,7.3E1,1.2E2,9.1E1,6.5E1,4.8E1,4.5E1,4.6E1,1.72E2,1.74E2,3.6E1,5.7E1],"tree_param":{"num_deleted":"0","num_feature":"125","num_nodes":"93","size_leaf_vector":"1"}},{"base_weights":[1.302698E1,-7.916066E2,9.629285E3,-1.0763983E3,2.7366E3,9.303845E3,6.3915474E3,-1.6620549E3,-3.328465E2,2.269795E3,6.745374E3,1.6368722E4,6.6808096E3,-2.1104292E3,-1.269354E3,7.596667E2,-6.1180725E2,1.5541926E3,3.6654924E3,1.22522705E4,2.7823892E3,9.5731045E3,2.3070484E4,5.4247456E3,1.085135E4,-2.173055E3,-1.01463794E3,-9.2682056E2,-1.5578643E3,5.240519E2,3.2382468E3,-1.3195895E3,-2.8469913E2,2.5014248E3,6.717295E2,-1.5265005E3,3.8029248E3,7.2983105E3,1.3791955E4,1.4299836E3,6.4637153E3,8.1531304E3,1.221502E4,1.6566078E4,2.6673633E4,3.0868645E3,6.745645E3,1.5633937E4,7.2147134E3,-8.970257E1,-1.1604199E2,-2.450745E1,-8.4554115E1,-6.6476616E1,-3.3398327E1,-1.14450966E2,-7.127688E1,4.0241013E1,-3.0969528E1,1.1749743E2,2.5597102E2,-4.2659157E1,-9.213722E1,1.1731215E1,-3.521907E1,9.552012E1,1.7170117E2,-1.9079329E1,6.6803604E1,-1.1548455E2,1.3293376E0,2.0648486E2,6.751637E1,4.6511402E1,3.9890213E2,3.0660056E2,7.363973E2,-5.709272E0,1.2462652E2,5.316098E2,1.7857553E2,2.3908609E2,4.5317578E2,6.9180835E2,4.265962E2,1.01300775E3,5.296867E2,1.2197083E3,1.9790319E3,2.732686E2,1.0212655E2,5.1119107E2,2.6847845E2,2.3959717E2,1.0460912E3,1.5868997E2,4.7342813E2],"categories":[],"categories_nodes":[],"categories_segments":[],"categories_sizes":[],"default_left":[0,0,0,0,0,0,0,0,0,0,0,0,0,0,0,0,0,0,0,0,0,0,0,0,0,0,0,0,0,0,0,0,0,0,0,0,0,0,0,0,0,0,0,0,0,0,0,0,0,0,0,0,0,0,0,0,0,0,0,0,0,0,0,0,0,0,0,0,0,0,0,0,0,0,0,0,0,0,0,0,0,0,0,0,0,0,0,0,0,0,0,0,0,0,0,0,0],"id":12,"left_children":[1,3,5,7,9,11,-1,13,15,17,19,21,23,25,27,29,31,33,35,37,39,41,43,45,47,49,51,53,55,57,59,61,63,65,67,69,71,73,75,77,79,81,83,85,87,89,91,93,95,-1,-1,-1,-1,-1,-1,-1,-1,-1,-1,-1,-1,-1,-1,-1,-1,-1,-1,-1,-1,-1,-1,-1,-1,-1,-1,-1,-1,-1,-1,-1,-1,-1,-1,-1,-1,-1,-1,-1,-1,-1,-1,-1,-1,-1,-1,-1,-1],"loss_changes":[7.585898E10,9.093409E9,2.7930608E10,3.6451686E9,1.2496993E9,1.3900403E10,0E0,8.2189005E8,1.1250598E9,6.0055296E8,1.4935721E9,9.069834E9,2.8380058E9,1.4773965E8,2.4551808E8,4.3687952E8,6.802968E8,3.3518643E8,1.5208218E8,1.2054067E8,1.998601E8,2.868091E8,1.9486351E9,1.2977981E9,2.0960553E9,1.1155456E8,4.1745624E7,1.1847085E8,1.2783488E8,2.2105466E8,9.658746E7,2.2510643E8,4.3868234E8,1.0036992E8,1.4746E8,7.359583E6,1.5471206E8,3.1535936E7,6.025011E7,5.2788668E7,9.464406E7,1.7151078E8,8.495974E7,6.457989E8,9.174139E8,3.763337E8,1.2469586E9,2.995631E9,6.439117E8,0E0,0E0,0E0,0E0,0E0,0E0,0E0,0E0,0E0,0E0,0E0,0E0,0E0,0E0,0E0,0E0,0E0,0E0,0E0,0E0,0E0,0E0,0E0,0E0,0E0,0E0,0E0,0E0,0E0,0E0,0E0,0E0,0E0,0E0,0E0,0E0,0E0,0E0,0E0,0E0,0E0,0E0,0E0,0E0,0E0,0E0,0E0,0E0],"parents":[2147483647,0,0,1,1,2,2,3,3,4,4,5,5,7,7,8,8,9,9,10,10,11,11,12,12,13,13,14,14,15,15,16,16,17,17,18,18,19,19,20,20,21,21,22,22,23,23,24,24,25,25,26,26,27,27,28,28,29,29,30,30,31,31,32,32,33,33,34,34,35,35,36,36,37,37,38,38,39,39,40,40,41,41,42,42,43,43,44,44,45,45,46,46,47,47,48,48],"right_children":[2,4,6,8,10,12,-1,14,16,18,20,22,24,26,28,30,32,34,36,38,40,42,44,46,48,50,52,54,56,58,60,62,64,66,68,70,72,74,76,78,80,82,84,86,88,90,92,94,96,-1,-1,-1,-1,-1,-1,-1,-1,-1,-1,-1,-1,-1,-1,-1,-1,-1,-1,-1,-1,-1,-1,-1,-1,-1,-1,-1,-1,-1,-1,-1,-1,-1,-1,-1,-1,-1,-1,-1,-1,-1,-1,-1,-1,-1,-1,-1,-1],"split_conditions":[1.715E2,1.4E2,1E0,1.022E6,4.4118E4,3.1975E4,6.3915474E3,7.397E1,2.9104E4,2.393E3,3.8452E4,6.1312266E4,2.35E2,1.451E3,4.0258E4,1.6102222E6,8.5E3,5.6E4,1.4751E2,4.42728E4,1.0037667E4,4.42728E4,2.35E2,8E3,5.6454E4,3E4,8.4255E4,7.7467156E5,6.75E3,1E0,1.303E2,5.2E4,6.7E4,1E4,1.1166667E4,3.112728E4,1.7E2,1.685E2,3.14E3,6.75E3,6.4253E4,3.6666667E3,1E0,2E4,3.597E3,4.128E4,5.074E4,5.64925E3,8.382E3,-8.970257E1,-1.1604199E2,-2.450745E1,-8.4554115E1,-6.6476616E1,-3.3398327E1,-1.14450966E2,-7.127688E1,4.0241013E1,-3.0969528E1,1.1749743E2,2.5597102E2,-4.2659157E1,-9.213722E1,1.1731215E1,-3.521907E1,9.552012E1,1.7170117E2,-1.9079329E1,6.6803604E1,-1.1548455E2,1.3293376E0,2.0648486E2,6.751637E1,4.6511402E1,3.9890213E2,3.0660056E2,7.363973E2,-5.709272E0,1.2462652E2,5.316098E2,1.7857553E2,2.3908609E2,4.5317578E2,6.9180835E2,4.265962E2,1.01300775E3,5.296867E2,1.2197083E3,1.9790319E3,2.732686E2,1.0212655E2,5.1119107E2,2.6847845E2,2.3959717E2,1.0460912E3,1.5868997E2,4.7342813E2],"split_indices":[5,5,15,8,0,2,0,5,2,4,2,0,5,4,2,8,10,2,5,0,10,0,5,10,2,2,2,8,10,114,5,2,2,10,10,0,5,5,10,10,2,10,21,2,4,2,2,10,10,0,0,0,0,0,0,0,0,0,0,0,0,0,0,0,0,0,0,0,0,0,0,0,0,0,0,0,0,0,0,0,0,0,0,0,0,0,0,0,0,0,0,0,0,0,0,0,0],"split_type":[0,0,0,0,0,0,0,0,0,0,0,0,0,0,0,0,0,0,0,0,0,0,0,0,0,0,0,0,0,0,0,0,0,0,0,0,0,0,0,0,0,0,0,0,0,0,0,0,0,0,0,0,0,0,0,0,0,0,0,0,0,0,0,0,0,0,0,0,0,0,0,0,0,0,0,0,0,0,0,0,0,0,0,0,0,0,0,0,0,0,0,0,0,0,0,0,0],"sum_hessian":[9.802E3,9.046E3,7.56E2,8.371E3,6.75E2,7.55E2,1E0,4.682E3,3.689E3,6.06E2,6.9E1,2.03E2,5.52E2,2.184E3,2.498E3,7.5E2,2.939E3,4.02E2,2.04E2,2.8E1,4.1E1,1.02E2,1.01E2,4.26E2,1.26E2,2.065E3,1.19E2,1.144E3,1.354E3,6.86E2,6.4E1,9.28E2,2.011E3,1.93E2,2.09E2,5E0,1.99E2,8E0,2E1,3.1E1,1E1,6.9E1,3.3E1,3.8E1,6.3E1,1.55E2,2.71E2,5.3E1,7.3E1,5.83E2,1.482E3,6.8E1,5.1E1,4.46E2,6.98E2,2.05E2,1.149E3,5.51E2,1.35E2,4.5E1,1.9E1,4.92E2,4.36E2,8.99E2,1.112E3,1.2E2,7.3E1,8.1E1,1.28E2,3E0,2E0,1.75E2,2.4E1,1E0,7E0,3E0,1.7E1,1.3E1,1.8E1,3E0,7E0,1.6E1,5.3E1,2.1E1,1.2E1,2.2E1,1.6E1,5.6E1,7E0,4.6E1,1.09E2,7.5E1,1.96E2,1.8E1,3.5E1,2.7E1,4.6E1],"tree_param":{"num_deleted":"0","num_feature":"125","num_nodes":"97","size_leaf_vector":"1"}},{"base_weights":[5.5673723E0,-6.2068164E2,1.0797294E4,-1.1301979E3,2.0493818E3,1.035321E4,6.231759E3,-6.5211993E2,-1.9681251E3,4.0482874E3,3.3026007E2,1.827093E4,6.0357246E3,-1.5698702E3,-1.9360251E2,-1.671209E3,-2.5067102E3,2.8631538E3,8.497345E3,1.3133739E3,-8.3909717E2,1.4827612E4,2.4611604E4,1.208138E4,4.448232E3,-1.9345621E3,-1.3252823E3,4.7004337E2,-5.465356E2,-1.9117683E3,-1.2092634E3,-2.3586243E3,-2.8940515E3,1.8024496E3,3.9328965E3,9.184388E3,2.8244727E3,5.532703E2,2.7987925E3,-1.1468022E3,1.498939E3,1.8679033E4,1.2348569E4,2.60043E4,3.2913507E2,8.1695415E3,2.1192533E4,7.2241016E3,2.0657183E3,-8.1197044E1,-1.0597766E2,-4.975078E1,-7.588116E1,5.7274494E0,7.736754E1,-3.666345E1,1.4570591E0,-1.2636177E2,-9.140085E1,-6.566418E1,-3.393187E1,-1.22518616E2,-9.949932E1,-1.3722911E2,-1.5935735E2,1.6242186E2,7.564805E1,2.5604587E2,1.5905582E2,4.825798E2,1.9318756E2,2.6148694E2,5.185392E1,8.7302154E-1,6.7040375E1,1.5828783E2,2.2312922E1,-7.52493E1,1.659172E1,1.17225235E2,3.6592255E1,4.973687E2,9.740838E2,6.2650903E2,1.7855132E2,1.1812539E3,1.9258055E3,3.6645312E2,9.727172E2,2.2045852E3,8.921494E2,3.0237E2,1.0252222E3,1.4564505E2,-4.6763012E1],"categories":[],"categories_nodes":[],"categories_segments":[],"categories_sizes":[],"default_left":[0,0,0,0,0,0,0,0,0,0,0,0,0,0,0,0,0,0,0,0,0,0,0,0,0,0,0,0,0,0,0,0,0,0,0,0,0,0,0,0,0,0,0,0,0,0,0,0,0,0,0,0,0,0,0,0,0,0,0,0,0,0,0,0,0,0,0,0,0,0,0,0,0,0,0,0,0,0,0,0,0,0,0,0,0,0,0,0,0,0,0,0,0,0,0],"id":13,"left_children":[1,3,5,7,9,11,-1,13,15,17,19,21,23,25,27,29,31,33,35,37,39,41,43,45,47,49,51,53,55,57,59,61,63,65,67,69,71,73,75,77,79,81,83,85,-1,87,89,91,93,-1,-1,-1,-1,-1,-1,-1,-1,-1,-1,-1,-1,-1,-1,-1,-1,-1,-1,-1,-1,-1,-1,-1,-1,-1,-1,-1,-1,-1,-1,-1,-1,-1,-1,-1,-1,-1,-1,-1,-1,-1,-1,-1,-1,-1,-1],"loss_changes":[6.6292183E10,1.2614962E10,2.590745E10,3.1177472E9,5.1050957E9,1.8246873E10,0E0,2.0864655E9,4.4804915E8,3.598035E9,9.2079104E8,3.7615002E9,3.2957635E9,1.447936E8,7.750652E8,2.0060262E8,5.070643E7,6.10177E8,5.3529907E8,4.8959782E8,2.6502877E8,9.6281805E8,1.4608916E9,2.393044E9,1.8236431E9,3.454029E7,6.150541E7,4.3986304E8,2.3221728E8,5.7183744E7,3.377165E7,1.9847424E7,3.212288E6,1.1019936E8,2.2485504E8,2.808955E8,6.766205E7,1.2192597E8,1.2549158E8,1.7209744E8,2.61752E7,1.356032E8,8.118886E7,8.76159E8,0E0,3.5061914E8,8.240097E8,1.8762578E9,3.8662323E8,0E0,0E0,0E0,0E0,0E0,0E0,0E0,0E0,0E0,0E0,0E0,0E0,0E0,0E0,0E0,0E0,0E0,0E0,0E0,0E0,0E0,0E0,0E0,0E0,0E0,0E0,0E0,0E0,0E0,0E0,0E0,0E0,0E0,0E0,0E0,0E0,0E0,0E0,0E0,0E0,0E0,0E0,0E0,0E0,0E0,0E0],"parents":[2147483647,0,0,1,1,2,2,3,3,4,4,5,5,7,7,8,8,9,9,10,10,11,11,12,12,13,13,14,14,15,15,16,16,17,17,18,18,19,19,20,20,21,21,22,22,23,23,24,24,25,25,26,26,27,27,28,28,29,29,30,30,31,31,32,32,33,33,34,34,35,35,36,36,37,37,38,38,39,39,40,40,41,41,42,42,43,43,45,45,46,46,47,47,48,48],"right_children":[2,4,6,8,10,12,-1,14,16,18,20,22,24,26,28,30,32,34,36,38,40,42,44,46,48,50,52,54,56,58,60,62,64,66,68,70,72,74,76,78,80,82,84,86,-1,88,90,92,94,-1,-1,-1,-1,-1,-1,-1,-1,-1,-1,-1,-1,-1,-1,-1,-1,-1,-1,-1,-1,-1,-1,-1,-1,-1,-1,-1,-1,-1,-1,-1,-1,-1,-1,-1,-1,-1,-1,-1,-1,-1,-1,-1,-1,-1,-1],"split_conditions":[4.42728E4,1.69248E4,5.0224E5,7E0,6E0,6E0,6.231759E3,7.9137427E3,1E1,3.61716E4,9E0,6.9316E4,4.2E4,4.4978E3,4E0,7.9702734E3,1.3E1,1.4296392E4,1E0,3.38496E4,1E0,4E0,1E0,1.4362E5,9E0,4E0,2.5E4,8.7204E3,8.7892E3,4.4032E3,6E0,8.944E3,1.5E1,3E0,4E0,1E0,4E0,2.1758E4,1E0,4.10478E4,1E1,4.99316E4,2.254E1,1.6159938E5,3.2913507E2,1E0,9.687E3,1.6159938E5,1.2E1,-8.1197044E1,-1.0597766E2,-4.975078E1,-7.588116E1,5.7274494E0,7.736754E1,-3.666345E1,1.4570591E0,-1.2636177E2,-9.140085E1,-6.566418E1,-3.393187E1,-1.22518616E2,-9.949932E1,-1.3722911E2,-1.5935735E2,1.6242186E2,7.564805E1,2.5604587E2,1.5905582E2,4.825798E2,1.9318756E2,2.6148694E2,5.185392E1,8.7302154E-1,6.7040375E1,1.5828783E2,2.2312922E1,-7.52493E1,1.659172E1,1.17225235E2,3.6592255E1,4.973687E2,9.740838E2,6.2650903E2,1.7855132E2,1.1812539E3,1.9258055E3,3.6645312E2,9.727172E2,2.2045852E3,8.921494E2,3.0237E2,1.0252222E3,1.4564505E2,-4.6763012E1],"split_indices":[0,1,1,7,7,7,0,1,7,1,7,0,2,0,7,0,7,0,37,1,69,7,52,1,7,7,2,0,0,0,6,0,7,7,7,54,7,1,37,1,7,1,3,1,0,24,2,1,7,0,0,0,0,0,0,0,0,0,0,0,0,0,0,0,0,0,0,0,0,0,0,0,0,0,0,0,0,0,0,0,0,0,0,0,0,0,0,0,0,0,0,0,0,0,0],"split_type":[0,0,0,0,0,0,0,0,0,0,0,0,0,0,0,0,0,0,0,0,0,0,0,0,0,0,0,0,0,0,0,0,0,0,0,0,0,0,0,0,0,0,0,0,0,0,0,0,0,0,0,0,0,0,0,0,0,0,0,0,0,0,0,0,0,0,0,0,0,0,0,0,0,0,0,0,0,0,0,0,0,0,0,0,0,0,0,0,0,0,0,0,0,0,0],"sum_hessian":[9.807E3,9.27E3,5.37E2,7.785E3,1.485E3,5.36E2,1E0,4.958E3,2.827E3,6.86E2,7.99E2,1.88E2,3.48E2,1.651E3,3.307E3,1.825E3,1.002E3,5.43E2,1.43E2,4.34E2,3.65E2,1.24E2,6.4E1,7.1E1,2.77E2,6.6E2,9.91E2,1.148E3,2.159E3,1.198E3,6.27E2,7.3E2,2.72E2,2.74E2,2.69E2,1.27E2,1.6E1,2.88E2,1.46E2,3.23E2,4.2E1,4.6E1,7.8E1,5.9E1,5E0,5.1E1,2E1,1.27E2,1.5E2,2.5E2,4.1E2,3.67E2,6.24E2,8.64E2,2.84E2,1.63E3,5.29E2,1.4E2,1.058E3,5.23E2,1.04E2,5.8E2,1.5E2,1.87E2,8.5E1,4.4E1,2.3E2,1.02E2,1.67E2,1.16E2,1.1E1,6E0,1E1,1.72E2,1.16E2,1.26E2,2E1,2.6E2,6.3E1,1.9E1,2.3E1,5E0,4.1E1,7.6E1,2E0,5.2E1,7E0,4.9E1,2E0,1E0,1.9E1,1.18E2,9E0,1.17E2,3.3E1],"tree_param":{"num_deleted":"0","num_feature":"125","num_nodes":"95","size_leaf_vector":"1"}},{"base_weights":[5.080748E0,-6.613186E2,9.267923E3,-9.685119E2,2.6588838E3,8.912648E3,6.075965E3,-4.9565106E2,-1.7691628E3,4.167876E3,1.1234572E3,1.6602922E4,6.549846E3,-1.01529114E3,4.7767038E2,-1.8822507E3,1.5180013E2,3.4156292E3,1.1966005E4,-2.3818144E2,2.151958E3,1.2014451E4,2.5120303E4,9.179004E3,2.8127964E3,-1.4980507E3,-5.8528955E2,1.9044766E2,1.6426528E3,-1.5820999E3,-2.4037993E3,1.1619648E3,-9.6972943E2,2.3908833E3,4.2041577E3,6.8691693E2,4.4025803E2,5.3991223E2,-8.6311523E2,5.2518677E3,1.7094346E3,9.507409E3,1.5662681E4,2.1725318E4,2.216329E3,7.5629106E3,1.6794299E4,2.1920945E3,1.2050198E4,-9.1408875E1,-6.382124E1,-1.3171126E1,-4.8444294E1,4.8378746E1,-1.1897445E1,1.781459E2,6.47771E1,-9.090353E1,-5.834123E1,-1.1315824E2,-1.3841283E2,4.7005497E1,2.4171092E2,-1.9585514E1,-7.491561E1,1.291598E2,-3.5683277E1,-2.0000389E2,2.1325896E2,2.0172054E1,2.6596942E2,-5.089756E1,7.758323E1,1.8321263E2,4.6322232E2,1.1194674E2,1.8230679E1,5.589795E2,3.5807098E2,9.297921E2,5.300207E2,1.2708926E3,6.856958E2,4.040817E2,6.486277E1,5.9754254E2,1.032848E3,1.3687135E2,-4.7650806E1,3.8430222E2,8.7478174E2],"categories":[],"categories_nodes":[],"categories_segments":[],"categories_sizes":[],"default_left":[0,0,0,0,0,0,0,0,0,0,0,0,0,0,0,0,0,0,0,0,0,0,0,0,0,0,0,0,0,0,0,0,0,0,0,0,0,0,0,0,0,0,0,0,0,0,0,0,0,0,0,0,0,0,0,0,0,0,0,0,0,0,0,0,0,0,0,0,0,0,0,0,0,0,0,0,0,0,0,0,0,0,0,0,0,0,0,0,0,0,0],"id":14,"left_children":[1,3,5,7,9,11,-1,13,15,17,19,21,23,25,27,29,31,33,35,37,39,41,43,45,47,49,51,53,55,57,59,61,63,65,67,-1,-1,69,71,73,75,77,79,81,-1,83,85,87,89,-1,-1,-1,-1,-1,-1,-1,-1,-1,-1,-1,-1,-1,-1,-1,-1,-1,-1,-1,-1,-1,-1,-1,-1,-1,-1,-1,-1,-1,-1,-1,-1,-1,-1,-1,-1,-1,-1,-1,-1,-1,-1],"loss_changes":[6.0610208E10,9.345262E9,2.51979E10,3.1736545E9,1.7932672E9,1.1847508E10,0E0,2.6674463E9,6.7654656E8,2.25278E9,5.410849E8,5.716783E9,4.9359544E9,7.1280845E8,6.140301E8,4.5643366E8,1.9825653E8,2.7922714E8,6.950246E7,8.167093E7,2.9281446E8,7.840072E8,2.4928584E9,3.515865E9,1.1776566E9,1.1612006E8,2.2445472E8,4.909523E8,2.3733997E8,1.8102733E8,4.868096E7,7.040837E7,2.477216E7,9.617658E7,1.1768883E8,0E0,0E0,4.677348E7,3.635173E7,1.3805434E8,1.373278E8,1.6708198E8,3.9681434E8,1.041791E9,0E0,7.890514E8,7.072696E8,3.4220486E8,1.74469E8,0E0,0E0,0E0,0E0,0E0,0E0,0E0,0E0,0E0,0E0,0E0,0E0,0E0,0E0,0E0,0E0,0E0,0E0,0E0,0E0,0E0,0E0,0E0,0E0,0E0,0E0,0E0,0E0,0E0,0E0,0E0,0E0,0E0,0E0,0E0,0E0,0E0,0E0,0E0,0E0,0E0,0E0],"parents":[2147483647,0,0,1,1,2,2,3,3,4,4,5,5,7,7,8,8,9,9,10,10,11,11,12,12,13,13,14,14,15,15,16,16,17,17,18,18,19,19,20,20,21,21,22,22,23,23,24,24,25,25,26,26,27,27,28,28,29,29,30,30,31,31,32,32,33,33,34,34,37,37,38,38,39,39,40,40,41,41,42,42,43,43,45,45,46,46,47,47,48,48],"right_children":[2,4,6,8,10,12,-1,14,16,18,20,22,24,26,28,30,32,34,36,38,40,42,44,46,48,50,52,54,56,58,60,62,64,66,68,-1,-1,70,72,74,76,78,80,82,-1,84,86,88,90,-1,-1,-1,-1,-1,-1,-1,-1,-1,-1,-1,-1,-1,-1,-1,-1,-1,-1,-1,-1,-1,-1,-1,-1,-1,-1,-1,-1,-1,-1,-1,-1,-1,-1,-1,-1,-1,-1,-1,-1,-1,-1],"split_conditions":[1.745E2,1.4E2,5.0224E5,7E0,6E0,2.9104E4,6.075965E3,1.12918E4,2.50346E4,4.35246E4,3.61716E4,2.35E2,8E0,7.8518E3,1.67528E4,1E1,1E1,2.1758E4,5E0,8E0,7E0,6.09826E4,1.6159938E5,2.4808E2,1E0,4.4978E3,5E0,4E0,3E0,7.9702734E3,1.3E1,1E0,1.2E1,1E0,2E0,6.8691693E2,4.4025803E2,1E0,1.6762E2,4.35246E4,1E1,4E0,2E4,5E0,2.216329E3,1E0,8.944E4,1.2E1,1.4362E5,-9.1408875E1,-6.382124E1,-1.3171126E1,-4.8444294E1,4.8378746E1,-1.1897445E1,1.781459E2,6.47771E1,-9.090353E1,-5.834123E1,-1.1315824E2,-1.3841283E2,4.7005497E1,2.4171092E2,-1.9585514E1,-7.491561E1,1.291598E2,-3.5683277E1,-2.0000389E2,2.1325896E2,2.0172054E1,2.6596942E2,-5.089756E1,7.758323E1,1.8321263E2,4.6322232E2,1.1194674E2,1.8230679E1,5.589795E2,3.5807098E2,9.297921E2,5.300207E2,1.2708926E3,6.856958E2,4.040817E2,6.486277E1,5.9754254E2,1.032848E3,1.3687135E2,-4.7650806E1,3.8430222E2,8.7478174E2],"split_indices":[5,5,1,7,7,2,0,1,1,0,1,5,7,1,1,7,7,1,7,7,7,1,1,5,24,0,7,7,7,0,7,32,7,92,7,0,0,17,5,0,7,7,2,7,0,37,1,7,1,0,0,0,0,0,0,0,0,0,0,0,0,0,0,0,0,0,0,0,0,0,0,0,0,0,0,0,0,0,0,0,0,0,0,0,0,0,0,0,0,0,0],"split_type":[0,0,0,0,0,0,0,0,0,0,0,0,0,0,0,0,0,0,0,0,0,0,0,0,0,0,0,0,0,0,0,0,0,0,0,0,0,0,0,0,0,0,0,0,0,0,0,0,0,0,0,0,0,0,0,0,0,0,0,0,0,0,0,0,0,0,0,0,0,0,0,0,0,0,0,0,0,0,0,0,0,0,0,0,0,0,0,0,0,0,0],"sum_hessian":[9.817E3,9.159E3,6.58E2,8.384E3,7.75E2,6.57E2,1E0,5.272E3,3.112E3,3.9E2,3.85E2,1.53E2,5.04E2,3.437E3,1.835E3,2.939E3,1.73E2,3.57E2,3.3E1,1.66E2,2.19E2,1.01E2,5.2E1,2.95E2,2.09E2,1.618E3,1.819E3,1.473E3,3.62E2,1.868E3,1.071E3,9.1E1,8.2E1,1.57E2,2E2,1.9E1,1.4E1,7.4E1,9.2E1,2.6E1,1.93E2,6.2E1,3.9E1,4.6E1,6E0,2.45E2,5E1,1.97E2,1.2E1,6.47E2,9.71E2,9.9E2,8.29E2,5.23E2,9.5E2,5.4E1,3.08E2,1.189E3,6.79E2,7.78E2,2.93E2,8.7E1,4E0,4E1,4.2E1,1.48E2,9E0,1E0,1.99E2,7.3E1,1E0,8.7E1,5E0,2E1,6E0,1.38E2,5.5E1,3.4E1,2.8E1,2.3E1,1.6E1,3E1,1.6E1,2.26E2,1.9E1,2.4E1,2.6E1,1.68E2,2.9E1,8E0,4E0],"tree_param":{"num_deleted":"0","num_feature":"125","num_nodes":"91","size_leaf_vector":"1"}},{"base_weights":[2.1737997E1,-7.383595E2,7.3815205E3,-1.0275793E3,1.2048734E3,7.1300625E3,5.924066E3,-4.7457285E2,-1.6087283E3,2.636548E3,-2.4900885E2,1.2574657E4,3.8926199E3,-1.3808436E3,-1.09292425E-1,-1.2883397E3,-2.10944E3,1.6880669E3,3.7504597E3,5.211618E2,-1.20244E3,8.142557E3,1.7688871E4,3.6690261E3,3.4837453E4,-1.7237617E3,-1.157624E3,-4.222586E2,4.687548E2,-1.8322415E3,-1.105234E3,-2.47553E3,-1.9221577E3,3.2968857E3,1.3184188E3,4.96296E3,2.9855322E3,-8.2692986E1,1.2808843E3,-1.8865223E3,-5.196421E2,8.722921E3,1.9282194E3,1.4011619E4,2.4070852E4,5.450011E3,1.532799E3,2.0275648E3,4.4239825E2,-9.8326546E1,-7.628585E1,-3.3309055E1,-6.3651955E1,-2.6035328E1,2.5454031E1,4.992181E1,3.4847069E0,-1.11567314E2,-8.463973E1,-5.9829803E1,-3.107403E1,-1.1725085E2,-1.37602E2,-8.7427536E1,-1.10265114E2,1.9700697E2,7.568682E1,5.184669E1,1.05059166E2,2.0930591E2,4.5688898E2,1.4386046E2,3.9379538E2,2.317772E1,-3.6059685E1,2.9702356E1,8.727052E1,-9.884494E1,6.933878E1,7.52244E1,-2.982251E1,4.5661728E2,1.7834702E2,1.4905162E2,-5.9736916E1,8.801462E2,5.848262E2,6.547851E2,1.3383223E3,2.1063899E2,6.3349036E2,1.0542384E2,-7.173943E1],"categories":[],"categories_nodes":[],"categories_segments":[],"categories_sizes":[],"default_left":[0,0,0,0,0,0,0,0,0,0,0,0,0,0,0,0,0,0,0,0,0,0,0,0,0,0,0,0,0,0,0,0,0,0,0,0,0,0,0,0,0,0,0,0,0,0,0,0,0,0,0,0,0,0,0,0,0,0,0,0,0,0,0,0,0,0,0,0,0,0,0,0,0,0,0,0,0,0,0,0,0,0,0,0,0,0,0,0,0,0,0,0,0],"id":15,"left_children":[1,3,5,7,9,11,-1,13,15,17,19,21,23,25,27,29,31,33,35,37,39,41,43,45,47,49,51,53,55,57,59,61,63,65,67,69,71,73,75,77,79,81,83,85,87,89,91,-1,-1,-1,-1,-1,-1,-1,-1,-1,-1,-1,-1,-1,-1,-1,-1,-1,-1,-1,-1,-1,-1,-1,-1,-1,-1,-1,-1,-1,-1,-1,-1,-1,-1,-1,-1,-1,-1,-1,-1,-1,-1,-1,-1,-1,-1],"loss_changes":[5.4621164E10,4.975128E9,2.4689566E10,2.4751421E9,2.3881216E9,1.6044106E10,0E0,1.69804E9,5.9982746E8,6.043397E8,4.1918032E8,7.5626496E9,3.8437253E9,1.0187776E8,5.1343216E8,2.2633856E8,9.561754E7,1.8238803E8,2.3096371E8,1.4507472E8,1.1812762E8,6.467912E8,3.3472307E9,2.1640658E9,2.3520307E8,2.2625792E7,4.594573E7,1.2541976E8,2.5971027E8,2.8279296E7,7.518618E7,1.1301632E7,4.397261E7,6.056269E7,5.444771E7,2.8930893E8,6.4746496E7,6.2068252E7,4.363067E7,4.0311776E7,2.0952924E7,3.2207053E8,5.945569E7,6.4215654E8,1.3062083E9,2.724651E9,4.4891098E8,0E0,0E0,0E0,0E0,0E0,0E0,0E0,0E0,0E0,0E0,0E0,0E0,0E0,0E0,0E0,0E0,0E0,0E0,0E0,0E0,0E0,0E0,0E0,0E0,0E0,0E0,0E0,0E0,0E0,0E0,0E0,0E0,0E0,0E0,0E0,0E0,0E0,0E0,0E0,0E0,0E0,0E0,0E0,0E0,0E0,0E0],"parents":[2147483647,0,0,1,1,2,2,3,3,4,4,5,5,7,7,8,8,9,9,10,10,11,11,12,12,13,13,14,14,15,15,16,16,17,17,18,18,19,19,20,20,21,21,22,22,23,23,24,24,25,25,26,26,27,27,28,28,29,29,30,30,31,31,32,32,33,33,34,34,35,35,36,36,37,37,38,38,39,39,40,40,41,41,42,42,43,43,44,44,45,45,46,46],"right_children":[2,4,6,8,10,12,-1,14,16,18,20,22,24,26,28,30,32,34,36,38,40,42,44,46,48,50,52,54,56,58,60,62,64,66,68,70,72,74,76,78,80,82,84,86,88,90,92,-1,-1,-1,-1,-1,-1,-1,-1,-1,-1,-1,-1,-1,-1,-1,-1,-1,-1,-1,-1,-1,-1,-1,-1,-1,-1,-1,-1,-1,-1,-1,-1,-1,-1,-1,-1,-1,-1,-1,-1,-1,-1,-1,-1,-1,-1],"split_conditions":[3.61716E4,1.67528E4,5.0224E5,6E0,6E0,6E0,5.924066E3,7.8518E3,9E0,2.0016185E6,9E0,6.813E6,5.998E3,5.6416E3,1.0815E6,7.52E5,1.197E3,3E0,4E0,2.11904E4,6.78E5,1E0,2.979E3,9E0,3.015E4,9.98E2,3E0,1E0,4E0,5.385E5,1.4583058E6,1.3E1,1.1E1,1.4166667E4,1E0,2.9435E6,1E0,7E0,1.09104E4,1E0,3.99E3,1E0,5E0,4E0,0E0,2.987E3,1.2E1,2.0275648E3,4.4239825E2,-9.8326546E1,-7.628585E1,-3.3309055E1,-6.3651955E1,-2.6035328E1,2.5454031E1,4.992181E1,3.4847069E0,-1.11567314E2,-8.463973E1,-5.9829803E1,-3.107403E1,-1.1725085E2,-1.37602E2,-8.7427536E1,-1.10265114E2,1.9700697E2,7.568682E1,5.184669E1,1.05059166E2,2.0930591E2,4.5688898E2,1.4386046E2,3.9379538E2,2.317772E1,-3.6059685E1,2.9702356E1,8.727052E1,-9.884494E1,6.933878E1,7.52244E1,-2.982251E1,4.5661728E2,1.7834702E2,1.4905162E2,-5.9736916E1,8.801462E2,5.848262E2,6.547851E2,1.3383223E3,2.1063899E2,6.3349036E2,1.0542384E2,-7.173943E1],"split_indices":[1,1,1,7,7,7,0,1,7,8,7,8,4,1,8,8,4,7,7,1,9,37,4,7,2,4,7,67,7,8,8,7,7,10,123,8,69,7,10,39,10,54,7,7,9,4,7,0,0,0,0,0,0,0,0,0,0,0,0,0,0,0,0,0,0,0,0,0,0,0,0,0,0,0,0,0,0,0,0,0,0,0,0,0,0,0,0,0,0,0,0,0,0],"split_type":[0,0,0,0,0,0,0,0,0,0,0,0,0,0,0,0,0,0,0,0,0,0,0,0,0,0,0,0,0,0,0,0,0,0,0,0,0,0,0,0,0,0,0,0,0,0,0,0,0,0,0,0,0,0,0,0,0,0,0,0,0,0,0,0,0,0,0,0,0,0,0,0,0,0,0,0,0,0,0,0,0,0,0,0,0,0,0,0,0,0,0,0,0],"sum_hessian":[9.762E3,8.849E3,9.13E2,7.703E3,1.146E3,9.12E2,1E0,3.948E3,3.755E3,5.77E2,5.69E2,3.39E2,5.73E2,1.356E3,2.592E3,2.292E3,1.463E3,3.13E2,2.64E2,3.15E2,2.54E2,1.83E2,1.56E2,5.7E2,3E0,5.32E2,8.24E2,1.364E3,1.228E3,5.75E2,1.717E3,4.91E2,9.72E2,5.7E1,2.56E2,1E2,1.64E2,1.76E2,1.39E2,1.26E2,1.28E2,1.67E2,1.6E1,1.01E2,5.5E1,3.1E2,2.6E2,2E0,1E0,2.35E2,2.97E2,1.58E2,6.66E2,1.234E3,1.3E2,5.27E2,7.01E2,1.45E2,4.3E2,1.443E3,2.74E2,3.4E2,1.51E2,6.07E2,3.65E2,4.1E1,1.6E1,1.9E2,6.6E1,8.6E1,1.4E1,1.62E2,2E0,9.5E1,8.1E1,5.7E1,8.2E1,1.23E2,3E0,4E0,1.24E2,1.54E2,1.3E1,1.2E1,4E0,3.7E1,6.4E1,1.2E1,4.3E1,2.66E2,4.4E1,2.18E2,4.2E1],"tree_param":{"num_deleted":"0","num_feature":"125","num_nodes":"93","size_leaf_vector":"1"}},{"base_weights":[3.5410988E0,-4.8641803E2,1.0248732E4,-8.321639E2,3.2556157E3,1.6634559E4,7.3636426E3,-1.3679285E3,-1.9346086E2,4.8009375E3,1.02297504E3,1.2285571E4,2.4283016E4,6.717403E3,2.6014473E4,-1.0941375E3,-2.0253086E3,3.505559E2,-1.1225781E3,3.929284E3,1.0747271E4,1.7709E3,-6.2222345E2,8.601677E3,1.4267446E4,2.5768473E4,1.1689061E4,8.956109E3,2.5956604E3,3.1378094E4,3.0399958E3,-1.5389745E3,-8.180445E2,-2.287681E3,-1.8068218E3,1.8114994E1,1.353281E3,-1.3307621E3,2.3646472E2,3.0950813E3,5.8595044E3,1.268665E4,7.797804E3,2.1578093E3,5.2128254E1,-1.6342031E3,1.1339905E2,-1.0128284E2,8.985101E3,1.446124E4,8.537408E1,6.5395825E2,2.6734576E4,2.653793E2,9.214249E2,7.439788E3,1.8059287E4,1.8225549E3,4.2821002E2,4.6435495E2,3.320722E4,1.8287846E2,4.5121216E1,-9.6737206E1,-7.0712906E1,-1.5865529E1,-5.1803505E1,-1.0418485E2,-1.2431032E2,-8.083499E1,-1.0100472E2,2.0056282E1,-2.6943838E1,1.1868739E2,5.0693962E1,-5.4083057E1,-9.924288E1,-3.5209198E0,1.5172112E2,1.6110931E2,-3.7397217E1,1.5523146E2,3.8022482E2,4.6146304E2,7.193725E2,4.5210666E2,2.2213618E2,8.170669E1,1.7729326E2,-2.231507E1,1.304017E2,-9.879874E1,-3.4675083E1,-1.163263E1,6.912026E1,4.608444E2,3.9197876E1,6.4073016E2,8.888459E2,5.2967487E2,1.3660378E3,3.1636646E2,5.0061728E2,1.2168241E3,7.553462E2,-1.071735E2,1.1287355E2,1.8876367E3,7.281146E2],"categories":[],"categories_nodes":[],"categories_segments":[],"categories_sizes":[],"default_left":[0,0,0,0,0,0,0,0,0,0,0,0,0,0,0,0,0,0,0,0,0,0,0,0,0,0,0,0,0,0,0,0,0,0,0,0,0,0,0,0,0,0,0,0,0,0,0,0,0,0,0,0,0,0,0,0,0,0,0,0,0,0,0,0,0,0,0,0,0,0,0,0,0,0,0,0,0,0,0,0,0,0,0,0,0,0,0,0,0,0,0,0,0,0,0,0,0,0,0,0,0,0,0,0,0,0,0,0,0],"id":16,"left_children":[1,3,5,7,9,11,13,15,17,19,21,23,25,27,29,31,33,35,37,39,41,43,45,47,49,51,53,55,57,59,61,63,65,67,69,71,73,75,77,79,81,83,85,87,89,91,93,-1,95,97,-1,-1,99,-1,-1,101,103,105,-1,-1,107,-1,-1,-1,-1,-1,-1,-1,-1,-1,-1,-1,-1,-1,-1,-1,-1,-1,-1,-1,-1,-1,-1,-1,-1,-1,-1,-1,-1,-1,-1,-1,-1,-1,-1,-1,-1,-1,-1,-1,-1,-1,-1,-1,-1,-1,-1,-1,-1],"loss_changes":[4.905272E10,1.2068619E10,8.09447E9,2.9213906E9,2.7172557E9,4.291969E9,3.5495997E9,8.3345306E8,1.9696476E9,2.373116E9,3.9977904E8,5.3436826E8,6.154711E8,2.744964E9,1.1368745E9,4.01579E8,7.405824E7,8.193421E8,4.074523E8,6.3882394E8,2.3855974E8,1.4818445E8,7.611769E7,1.5674317E8,1.1404698E8,1.7748173E8,2.0324205E8,2.543491E9,4.7812243E8,1.4859264E7,6.59644E5,5.9209216E7,2.208553E8,1.9764992E7,2.7104256E7,3.9424362E8,2.0955853E8,2.011968E8,1.650737E8,1.4259994E8,5.628731E8,6.714573E7,6.837376E7,1.2649978E8,5.4669416E7,1.2454384E7,2.6670122E7,0E0,5.5504384E7,7.794074E7,0E0,0E0,7.957709E7,0E0,0E0,4.174418E8,1.3273088E8,1.7042806E8,0E0,0E0,4.348928E7,0E0,0E0,0E0,0E0,0E0,0E0,0E0,0E0,0E0,0E0,0E0,0E0,0E0,0E0,0E0,0E0,0E0,0E0,0E0,0E0,0E0,0E0,0E0,0E0,0E0,0E0,0E0,0E0,0E0,0E0,0E0,0E0,0E0,0E0,0E0,0E0,0E0,0E0,0E0,0E0,0E0,0E0,0E0,0E0,0E0,0E0,0E0,0E0],"parents":[2147483647,0,0,1,1,2,2,3,3,4,4,5,5,6,6,7,7,8,8,9,9,10,10,11,11,12,12,13,13,14,14,15,15,16,16,17,17,18,18,19,19,20,20,21,21,22,22,23,23,24,24,25,25,26,26,27,27,28,28,29,29,30,30,31,31,32,32,33,33,34,34,35,35,36,36,37,37,38,38,39,39,40,40,41,41,42,42,43,43,44,44,45,45,46,46,48,48,49,49,52,52,55,55,56,56,57,57,60,60],"right_children":[2,4,6,8,10,12,14,16,18,20,22,24,26,28,30,32,34,36,38,40,42,44,46,48,50,52,54,56,58,60,62,64,66,68,70,72,74,76,78,80,82,84,86,88,90,92,94,-1,96,98,-1,-1,100,-1,-1,102,104,106,-1,-1,108,-1,-1,-1,-1,-1,-1,-1,-1,-1,-1,-1,-1,-1,-1,-1,-1,-1,-1,-1,-1,-1,-1,-1,-1,-1,-1,-1,-1,-1,-1,-1,-1,-1,-1,-1,-1,-1,-1,-1,-1,-1,-1,-1,-1,-1,-1,-1,-1],"split_conditions":[1.877E2,1.41E2,5E0,1.022E6,7E0,6.59878E4,4.663E3,8E0,7E0,4.42728E4,1E1,4.99316E4,1.768E1,9E0,1.1E1,7.045E5,1.197E3,1.51704E4,2.457E6,3.61716E4,5E0,1E0,4.99E5,6.106E3,1E0,2.011E2,1.86E1,1.4362E5,1E0,1.4448E5,5.461E3,9.98E2,4E0,1.1E1,1E1,5E0,4E0,1E1,3.8571E4,1E0,5.88E5,5.85918E4,6.53944E4,4.57778E4,3.51E5,1.83E2,4.57778E4,-1.0128284E2,2.37315E4,1.999E3,8.537408E1,6.5395825E2,7.8375E6,2.653793E2,9.214249E2,2.979E3,1.35E1,5.23396E4,4.2821002E2,4.6435495E2,1E1,1.8287846E2,4.5121216E1,-9.6737206E1,-7.0712906E1,-1.5865529E1,-5.1803505E1,-1.0418485E2,-1.2431032E2,-8.083499E1,-1.0100472E2,2.0056282E1,-2.6943838E1,1.1868739E2,5.0693962E1,-5.4083057E1,-9.924288E1,-3.5209198E0,1.5172112E2,1.6110931E2,-3.7397217E1,1.5523146E2,3.8022482E2,4.6146304E2,7.193725E2,4.5210666E2,2.2213618E2,8.170669E1,1.7729326E2,-2.231507E1,1.304017E2,-9.879874E1,-3.4675083E1,-1.163263E1,6.912026E1,4.608444E2,3.9197876E1,6.4073016E2,8.888459E2,5.2967487E2,1.3660378E3,3.1636646E2,5.0061728E2,1.2168241E3,7.553462E2,-1.071735E2,1.1287355E2,1.8876367E3,7.281146E2],"split_indices":[5,5,7,8,7,0,4,7,7,0,7,1,3,7,7,8,4,1,8,1,7,122,9,0,11,5,3,1,90,0,4,4,7,7,7,7,7,7,1,92,9,0,0,0,9,5,0,0,10,4,0,0,8,0,0,4,3,1,0,0,7,0,0,0,0,0,0,0,0,0,0,0,0,0,0,0,0,0,0,0,0,0,0,0,0,0,0,0,0,0,0,0,0,0,0,0,0,0,0,0,0,0,0,0,0,0,0,0,0],"split_type":[0,0,0,0,0,0,0,0,0,0,0,0,0,0,0,0,0,0,0,0,0,0,0,0,0,0,0,0,0,0,0,0,0,0,0,0,0,0,0,0,0,0,0,0,0,0,0,0,0,0,0,0,0,0,0,0,0,0,0,0,0,0,0,0,0,0,0,0,0,0,0,0,0,0,0,0,0,0,0,0,0,0,0,0,0,0,0,0,0,0,0,0,0,0,0,0,0,0,0,0,0,0,0,0,0,0,0,0,0],"sum_hessian":[9.77E3,9.325E3,4.45E2,8.537E3,7.88E2,1.37E2,3.08E2,4.642E3,3.895E3,4.65E2,3.23E2,8.9E1,4.8E1,2.99E2,9E0,3.279E3,1.363E3,2.457E3,1.438E3,4.07E2,5.8E1,2.22E2,1.01E2,3.3E1,5.6E1,4.2E1,6E0,1.93E2,1.06E2,7E0,2E0,1.254E3,2.025E3,6.15E2,7.48E2,1.846E3,6.11E2,1.247E3,1.91E2,2.86E2,1.21E2,3.3E1,2.5E1,1.81E2,4.1E1,4.2E1,5.9E1,1E0,3.2E1,5.5E1,1E0,4E0,3.8E1,4E0,2E0,1.67E2,2.6E1,9.5E1,1.1E1,1E0,6E0,1E0,1E0,2.97E2,9.57E2,6.15E2,1.41E3,3.09E2,3.06E2,4E2,3.48E2,1.094E3,7.52E2,1.51E2,4.6E2,9.05E2,3.42E2,1.73E2,1.8E1,2.77E2,9E0,4.8E1,7.3E1,1.3E1,2E1,1.7E1,8E0,1.33E2,4.8E1,3.5E1,6E0,3E1,1.2E1,4.7E1,1.2E1,3.1E1,1E0,4E1,1.5E1,2E0,3.6E1,1.19E2,4.8E1,6E0,2E1,9E0,8.6E1,4E0,2E0],"tree_param":{"num_deleted":"0","num_feature":"125","num_nodes":"109","size_leaf_vector":"1"}},{"base_weights":[-8.1208986E-1,-6.6537714E2,6.345641E3,-9.3483673E2,1.0309867E3,1.0839654E4,3.8424978E3,-1.5017644E3,-5.2623785E2,2.3623203E3,3.3559164E2,8.275413E3,1.7906727E4,2.560237E3,5.676569E3,-1.7499391E3,-1.2274232E3,-7.000476E1,-8.765838E2,1.6411484E3,3.5739097E3,-8.0079724E2,9.674964E2,6.0476855E3,1.0762755E4,9.76073E3,2.0039273E4,1.5698207E3,3.8088962E3,3.3188552E3,7.752679E3,-1.8312126E3,-1.00653906E3,-8.3201117E2,-1.3754413E3,-2.1507904E2,9.7359326E2,-1.1866232E3,-5.359744E2,3.027468E3,1.3240112E3,6.1195713E3,3.080247E3,-2.066311E3,-4.9601776E2,5.22773E2,2.606953E3,6.713502E3,4.5113998E2,1.4927829E4,8.567487E3,1.1105467E4,3.5054287E3,1.7918418E4,2.8443395E4,-1.2551326E2,1.9864468E3,6.8813145E3,2.3663037E3,5.8162627E3,2.2558347E3,7.039098E3,1.918379E4,-7.9286064E1,-1.0013115E2,-5.8280117E1,-4.0037243E1,-4.718532E0,-4.414836E1,-8.000469E1,-5.402638E1,-2.960886E1,3.964195E0,2.7203938E1,9.6920494E1,-8.524855E1,-5.352718E1,-9.156361E0,-4.5805866E1,1.9511139E2,1.0333001E2,1.8717062E1,8.321223E1,2.1049036E2,3.7058475E2,6.856602E1,2.059105E2,-5.5383633E1,-1.1540391E2,-7.7811046E0,-8.323858E1,-6.6569725E1,3.348562E1,-4.4776436E1,1.4655658E2,2.2806656E2,3.9741086E2,-1.0615536E2,7.9011986E1,5.9591675E2,9.3739154E2,2.5596077E2,5.89804E2,-2.3618017E1,5.954406E2,-2.8494263E1,2.3333643E2,9.463737E2,1.8193669E2,1.5851611E3,6.9989667E2,-4.935346E1,1.6293402E1,6.532839E1,1.839886E2,4.6922726E2,2.8059464E2,7.108279E1,1.8432787E2,1.25569275E2,3.544327E2,-1.152065E1,1.9506831E2,5.573758E2,2.7969684E2,1.102442E3,4.983711E1],"categories":[],"categories_nodes":[],"categories_segments":[],"categories_sizes":[],"default_left":[0,0,0,0,0,0,0,0,0,0,0,0,0,0,0,0,0,0,0,0,0,0,0,0,0,0,0,0,0,0,0,0,0,0,0,0,0,0,0,0,0,0,0,0,0,0,0,0,0,0,0,0,0,0,0,0,0,0,0,0,0,0,0,0,0,0,0,0,0,0,0,0,0,0,0,0,0,0,0,0,0,0,0,0,0,0,0,0,0,0,0,0,0,0,0,0,0,0,0,0,0,0,0,0,0,0,0,0,0,0,0,0,0,0,0,0,0,0,0,0,0,0,0,0,0,0,0],"id":17,"left_children":[1,3,5,7,9,11,13,15,17,19,21,23,25,27,29,31,33,35,37,39,41,43,45,47,49,51,53,55,57,59,61,63,65,67,69,71,73,75,77,79,81,83,85,87,89,91,93,95,97,99,101,103,105,107,109,111,113,115,117,119,121,123,125,-1,-1,-1,-1,-1,-1,-1,-1,-1,-1,-1,-1,-1,-1,-1,-1,-1,-1,-1,-1,-1,-1,-1,-1,-1,-1,-1,-1,-1,-1,-1,-1,-1,-1,-1,-1,-1,-1,-1,-1,-1,-1,-1,-1,-1,-1,-1,-1,-1,-1,-1,-1,-1,-1,-1,-1,-1,-1,-1,-1,-1,-1,-1,-1],"loss_changes":[4.111347E10,4.0344276E9,1.035257E10,1.7631939E9,1.1194289E9,5.8319667E9,1.3847624E9,2.1497344E8,7.0754765E8,3.5674675E8,5.723741E8,1.2869437E9,1.3157417E9,4.2933658E8,1.1686195E9,9.917696E7,8.77015E7,2.9150154E8,2.6379213E8,1.1118074E8,1.7468173E8,1.0890032E8,3.7193872E8,4.8511232E8,9.1445965E8,1.2930509E8,7.023657E8,1.401007E8,6.707149E8,2.948356E8,9.172188E8,6.019635E7,4.53328E6,1.5552992E7,7.13481E7,1.8764323E8,9.632997E7,7.699699E7,1.6012038E8,3.2281024E7,6.884547E7,2.8021824E7,2.267209E8,1.0190608E7,9.164168E7,1.1096152E8,1.2638675E8,2.7465216E8,4.6953744E7,2.1341594E8,7.968589E8,1.5444122E8,2.6322808E7,7.5244134E8,1.212969E8,1.5877264E7,1.7824192E8,1.0304026E8,1.2820666E8,1.2517107E8,3.4046848E8,6.679327E8,3.427707E8,0E0,0E0,0E0,0E0,0E0,0E0,0E0,0E0,0E0,0E0,0E0,0E0,0E0,0E0,0E0,0E0,0E0,0E0,0E0,0E0,0E0,0E0,0E0,0E0,0E0,0E0,0E0,0E0,0E0,0E0,0E0,0E0,0E0,0E0,0E0,0E0,0E0,0E0,0E0,0E0,0E0,0E0,0E0,0E0,0E0,0E0,0E0,0E0,0E0,0E0,0E0,0E0,0E0,0E0,0E0,0E0,0E0,0E0,0E0,0E0,0E0,0E0,0E0,0E0],"parents":[2147483647,0,0,1,1,2,2,3,3,4,4,5,5,6,6,7,7,8,8,9,9,10,10,11,11,12,12,13,13,14,14,15,15,16,16,17,17,18,18,19,19,20,20,21,21,22,22,23,23,24,24,25,25,26,26,27,27,28,28,29,29,30,30,31,31,32,32,33,33,34,34,35,35,36,36,37,37,38,38,39,39,40,40,41,41,42,42,43,43,44,44,45,45,46,46,47,47,48,48,49,49,50,50,51,51,52,52,53,53,54,54,55,55,56,56,57,57,58,58,59,59,60,60,61,61,62,62],"right_children":[2,4,6,8,10,12,14,16,18,20,22,24,26,28,30,32,34,36,38,40,42,44,46,48,50,52,54,56,58,60,62,64,66,68,70,72,74,76,78,80,82,84,86,88,90,92,94,96,98,100,102,104,106,108,110,112,114,116,118,120,122,124,126,-1,-1,-1,-1,-1,-1,-1,-1,-1,-1,-1,-1,-1,-1,-1,-1,-1,-1,-1,-1,-1,-1,-1,-1,-1,-1,-1,-1,-1,-1,-1,-1,-1,-1,-1,-1,-1,-1,-1,-1,-1,-1,-1,-1,-1,-1,-1,-1,-1,-1,-1,-1,-1,-1,-1,-1,-1,-1,-1,-1,-1,-1,-1,-1],"split_conditions":[3.61716E4,1.6082E4,4.128E4,8.51514E3,5.074E4,2.35E2,1.877E2,6.81E1,4.6E4,2.11904E4,1.1166667E4,5.55818E4,6.59878E4,1.06E4,9.142857E3,1E0,2.9E4,1.176E2,1.1333333E4,1.5E4,1.7E4,6.75E3,1.4751E2,1E0,2.0999E4,1E0,1.6159938E5,1.255E1,7.1E4,5.15E4,1.6159938E5,4E4,4.558E3,1.196E3,2.089E1,1.248E3,1E0,6.531E3,8E4,1.496E3,7.1666665E3,1E0,7.4276665E3,1.21E2,9.8E4,1.24E1,1.27796E4,4.88575E3,1.474E1,4.5454546E3,5.8E3,4.35246E4,3.5E3,2.999E3,1.36E1,6.222222E3,4.57778E4,5.5E4,1.7E4,4.98875E3,6.6666665E3,5.6454E4,1.52E1,-7.9286064E1,-1.0013115E2,-5.8280117E1,-4.0037243E1,-4.718532E0,-4.414836E1,-8.000469E1,-5.402638E1,-2.960886E1,3.964195E0,2.7203938E1,9.6920494E1,-8.524855E1,-5.352718E1,-9.156361E0,-4.5805866E1,1.9511139E2,1.0333001E2,1.8717062E1,8.321223E1,2.1049036E2,3.7058475E2,6.856602E1,2.059105E2,-5.5383633E1,-1.1540391E2,-7.7811046E0,-8.323858E1,-6.6569725E1,3.348562E1,-4.4776436E1,1.4655658E2,2.2806656E2,3.9741086E2,-1.0615536E2,7.9011986E1,5.9591675E2,9.3739154E2,2.5596077E2,5.89804E2,-2.3618017E1,5.954406E2,-2.8494263E1,2.3333643E2,9.463737E2,1.8193669E2,1.5851611E3,6.9989667E2,-4.935346E1,1.6293402E1,6.532839E1,1.839886E2,4.6922726E2,2.8059464E2,7.108279E1,1.8432787E2,1.25569275E2,3.544327E2,-1.152065E1,1.9506831E2,5.573758E2,2.7969684E2,1.102442E3,4.983711E1],"split_indices":[1,1,2,1,2,5,5,5,2,1,10,1,0,10,10,123,2,5,10,2,2,10,5,37,2,21,1,3,2,2,1,2,0,4,3,4,123,10,2,4,10,123,10,5,2,3,0,10,3,10,10,0,10,4,3,10,0,2,10,10,10,2,3,0,0,0,0,0,0,0,0,0,0,0,0,0,0,0,0,0,0,0,0,0,0,0,0,0,0,0,0,0,0,0,0,0,0,0,0,0,0,0,0,0,0,0,0,0,0,0,0,0,0,0,0,0,0,0,0,0,0,0,0,0,0,0,0],"split_type":[0,0,0,0,0,0,0,0,0,0,0,0,0,0,0,0,0,0,0,0,0,0,0,0,0,0,0,0,0,0,0,0,0,0,0,0,0,0,0,0,0,0,0,0,0,0,0,0,0,0,0,0,0,0,0,0,0,0,0,0,0,0,0,0,0,0,0,0,0,0,0,0,0,0,0,0,0,0,0,0,0,0,0,0,0,0,0,0,0,0,0,0,0,0,0,0,0,0,0,0,0,0,0,0,0,0,0,0,0,0,0,0,0,0,0,0,0,0,0,0,0,0,0,0,0,0,0],"sum_hessian":[9.746E3,8.823E3,9.23E2,7.614E3,1.209E3,3.29E2,5.94E2,3.188E3,4.426E3,4.14E2,7.95E2,2.43E2,8.6E1,3.51E2,2.43E2,